327 128
317 0.051740192 0.02475292 0.16512972 -0.17430182 0.098726474 0.114557356 -0.064657256 0.015568476 -0.09816625 -0.24075346 -0.064778 -0.047309667 -0.10247885 -0.0028771148 -0.13009542 0.041962717 -0.05373834 0.1178332 0.11504599 0.008631178 -0.13022898 0.19787456 -0.04062217 -0.05822242 -0.030729089 0.06429897 0.0043702996 0.22222158 0.034954265 0.03035606 0.14146212 0.06228556 0.04715599 0.0067124874 -0.12786153 -0.1443641 -0.07931944 0.15793411 -0.058099166 -0.09971972 0.056391012 0.074025005 -0.19678192 -0.11180363 0.044151645 -0.016694011 -0.014244868 -0.023355069 0.22772096 -0.12113736 0.058367275 -0.11359868 -0.07645494 0.098962635 0.11663374 0.090421304 -0.069090754 -0.13208187 0.08566906 -0.10105581 -0.2081525 -0.14495927 0.15043905 -0.077988155 0.31979892 -0.018453375 -0.15730272 0.072197445 0.09153939 -0.12179202 -0.22025065 0.14275052 0.13121812 0.18087728 -0.11745199 0.070270896 0.18084936 0.11278548 0.15534823 -0.0006365911 0.062913544 -0.12249054 -0.024893796 -0.046476126 -0.055275768 0.008759418 -0.045850627 0.076912895 0.05657254 -0.07267381 0.2120237 -0.2397693 -0.070342 0.22775763 0.059877556 0.06356988 0.19951025 -0.026791815 0.033922303 -0.017206546 0.09560212 0.10020907 -0.05555404 -0.032148402 0.2168998 0.015832053 -0.079413936 0.050271407 -0.08883397 -0.028575664 0.10115201 0.05105443 0.14337127 -0.017955624 -0.05909008 0.2156877 0.025801318 0.20668682 0.19366838 -0.07270354 0.11063054 0.13217956 -0.05908642 0.01613122 -0.045346018 0.1335468 0.16887555 0.0016826565
38 -0.07113551 0.09169468 0.32644552 -0.12933975 0.018382648 0.2274092 -0.045122486 0.2936923 -0.018012874 -0.10527247 0.001497649 0.07139715 0.05323493 -0.05119308 0.019001553 0.020096054 0.10590997 -0.04117922 0.1078735 0.011702 -0.03208464 0.23613273 0.15484972 0.055546694 -0.10471868 -0.07457887 -0.15861112 0.28473294 0.30442613 -0.0041460344 0.042889714 -0.070247136 0.060109798 -0.040766295 -0.23630929 -0.016568888 0.058434203 0.136713 -0.0045982166 -0.25202978 0.13853253 -0.102848366 -0.15907988 -0.11685041 -0.07007782 -0.07342133 0.06595063 0.08281734 0.26397404 -0.06891697 0.1249479 -0.15520243 -0.057695743 0.22962514 -0.040961012 0.21790963 -0.10941262 -0.15962328 0.0016844405 -0.08052372 -0.106043756 -0.10432106 0.076636896 -0.20337501 0.15679972 0.046180706 0.122740045 0.02550439 0.11931566 0.13597555 -0.021469392 0.1337829 -0.03048147 0.04068544 0.16145384 0.12133159 0.042256504 -0.22726637 0.004284302 -0.13309832 0.08726165 0.07903231 0.054665774 -0.12112663 -0.08425242 -0.23165599 -0.23581047 0.09196694 -0.0022657376 -0.17814387 0.19691385 -0.010483157 -0.0670325 0.045792896 0.08302721 0.05176971 -0.051674455 0.021159839 0.08861931 0.044581663 0.020950126 -0.07271587 -0.049536437 -0.08087265 0.07596063 -0.07052524 -0.03792728 -0.02333978 -0.16385661 -0.0055758306 -0.12608035 -0.17068793 0.17113915 -0.17352122 -0.1795914 0.108022414 -0.060962096 0.09696052 0.14006308 -0.044067584 -0.021899123 -0.06496992 -0.06857888 0.20306523 0.06491456 0.1817351 0.2000355 -0.016117517
304 -0.117070004 0.04052861 0.28543308 -0.21337329 0.08967845 0.06530717 -0.09127358 0.072672464 -0.033322297 -0.12901695 -0.05423199 -0.07034025 -0.018889962 0.006438157 -0.21412398 0.04804513 0.08188655 0.11854598 0.22849058 0.05947806 -0.10159567 0.2852886 -0.0667705 -0.01843405 -0.1362742 0.12529899 -0.09075259 0.22439896 0.06502944 0.013347056 0.11541181 -0.022744937 -0.01495369 0.007878804 -0.14594765 -0.071897596 -0.072412245 0.19982864 -0.09477278 -0.13078085 0.030335752 0.110114366 -0.22583102 -0.12612025 0.046189718 -0.021385724 -0.09123594 0.078105636 0.24692523 -0.1614158 -0.031088447 -0.07211253 -0.039686408 0.19800405 0.07962372 0.1278163 -0.2248766 -0.07660914 0.11420267 -0.10183018 -0.14380711 -0.11626159 0.07880502 -0.06516108 0.23042321 0.12918118 -0.062354937 0.023600241 0.17039746 -0.058786258 -0.0990045 0.11422873 0.066268645 0.06617642 -0.006876188 0.12122682 0.092447706 -0.038959086 0.046517592 -0.040474053 0.06162589 -0.0033873105 0.046588346 -0.07262875 -0.067175716 0.04806982 -0.12359267 0.06742655 -0.014407689 -0.15910292 0.14995672 -0.1626473 -0.06815626 0.20884517 0.07638645 -0.0036131304 0.042723488 -0.07514227 0.013109872 -0.006670467 -0.012213842 0.02519467 -0.017924288 -0.063309915 0.23099199 0.005188836 -0.05900281 0.09465928 -0.06932846 -0.023108792 -0.0042519164 -0.07122925 0.19626167 -0.040288065 -0.11103027 0.17661048 0.036756355 0.24086988 0.17890717 -0.03482566 -0.09198971 0.1314225 -0.15256268 -0.008720352 -0.10212592 0.13441509 0.13948111 0.02783185
3 0.07563743 0.0031715487 0.08555534 -0.13996363 0.24840167 0.008790035 -0.018261626 -0.07429027 0.00026046444 -0.13708419 -0.03459341 -0.13902542 -0.24531814 -0.0652871 -0.0154415155 -0.0052805734 0.05192445 -0.0065721213 -0.01677459 -0.04598851 -0.07652866 0.061907258 -0.012162678 -0.08844553 -0.009018765 0.072304875 -0.15018472 0.046647698 0.036470328 -0.2207069 0.059694175 0.054998644 -0.10184572 -0.05743658 -0.2714192 -0.21473764 -0.027768433 0.079827525 0.0013546133 -0.118504226 0.14958584 -0.019922895 -0.1285264 -0.31794193 -0.012021819 -0.11129165 0.2540739 -0.049007326 -0.035007764 -0.18766162 0.08011978 -0.040507063 -0.099549055 0.072688624 0.045595787 0.09210052 0.0584259 0.013501643 0.039972886 -0.12199616 -0.28773576 -0.12908824 0.09450211 -0.012146532 0.06052222 0.02851363 -0.15103401 0.010322334 0.042100854 -0.085176826 -0.1798635 0.100616805 0.099898465 0.09258823 -0.15126202 -0.020961776 0.101871565 -0.024891995 0.22089627 -0.04313152 0.042939983 -0.02835642 -0.07127024 -0.013534518 0.08240909 -0.10565502 -0.10798859 0.009499152 0.08265346 -0.13385604 0.094454914 -0.39776075 -0.18601634 0.030148173 0.18279877 -0.04920989 0.13854173 0.13982205 0.26151493 0.062489748 0.04593111 0.12410874 -0.21241723 -0.05201086 0.2745254 -0.03296204 0.14608246 -0.01679027 -0.025891801 -0.15252073 -0.04181204 -0.12010867 -0.050301954 0.17415063 0.0038926206 0.13531145 0.05215849 0.2717348 0.30208582 0.0026014757 0.11699681 0.007058387 0.12534463 0.08556134 0.009161815 0.076280355 0.21094488 0.093090594
108 -0.04394009 0.032148097 0.34031007 -0.15836954 0.057760864 0.2610009 -0.039954133 0.30534536 -0.0712234 -0.2264354 0.003849595 0.049333118 0.029175226 -0.025674758 0.011793674 0.030568447 0.08059973 0.005571092 0.09596485 -0.011470645 -0.026980815 0.21899498 0.18590337 0.08095729 -0.07779048 -0.098554544 -0.1184049 0.3148938 0.32186022 0.011972451 0.08748743 -0.0497336 0.046171337 -0.10772958 -0.23558289 -0.0028766792 0.04970334 0.1162624 0.044115163 -0.21848382 0.18051393 -0.15215394 -0.13843754 -0.12498664 -0.08359846 -0.077315465 0.102079794 0.10498635 0.20308591 -0.036731623 0.11492721 -0.1729684 -0.045731273 0.1891622 -0.09091855 0.15509899 -0.111843444 -0.18769911 0.063894816 -0.035396695 -0.15084131 -0.14282562 0.08858211 -0.21432966 0.11996242 0.049439505 0.103925556 -0.0051749996 0.12492646 0.14046492 -0.062636964 0.18281725 -0.041013632 0.057050075 0.2560321 0.12678859 0.0024785413 -0.21936814 0.04425424 -0.13596344 0.08907181 0.10818985 0.070589535 -0.104087844 -0.08232993 -0.19129854 -0.12045998 0.09672321 0.006322453 -0.15623166 0.21535206 -0.030038122 -0.1056757 -0.013724379 0.06775157 0.11407428 -0.14406362 -0.0122073535 0.078028694 0.0676826 -0.008159031 -0.07622176 -0.002498657 -0.12162954 0.046643533 -0.035388768 -0.021359028 -0.0047583045 -0.17615461 0.04667383 -0.16628873 -0.18575224 0.17941093 -0.15023214 -0.06315185 0.11100762 -0.032250002 -0.033536028 0.11024892 -0.028749093 -0.040934578 -0.08599408 0.024609406 0.19862176 0.14401509 0.14333528 0.1907176 -0.06320994
201 -0.22904381 0.06351461 0.24132155 -0.16549069 0.03894982 -0.02330525 -0.075962655 0.035851017 -0.02424294 -0.032784272 -0.0049303756 -0.052109744 -0.029510912 0.05349631 -0.23275879 0.049607217 0.17311527 0.1033993 0.22889443 0.010420476 -0.095376015 0.26530507 -0.1274929 -0.009764062 -0.14063846 0.1651143 -0.07704681 0.17328422 0.10930244 0.022580095 0.09822041 -0.052567467 -0.07245035 -0.070672296 -0.2094964 0.032326624 -0.040155996 0.20435403 -0.04375906 -0.100619234 0.10507996 0.10036237 -0.22297311 -0.15410256 0.03569281 0.02405783 -0.029960629 0.08026356 0.15713148 -0.1575492 -0.053528283 -0.035161946 -0.007960081 0.15310287 0.060912523 0.14909573 -0.27650085 -0.06902657 0.13380772 -0.1268969 -0.07919252 -0.1925722 0.013046969 -0.09416503 0.15754822 0.12652484 -0.08666578 0.021834899 0.17973313 -0.07971712 -0.103271164 0.15564796 0.05648449 0.065316156 0.09466344 0.11807794 0.101333395 -0.10017614 0.09452661 0.033833303 0.06589435 0.050237723 0.117157206 0.005103493 -0.047663648 0.089476414 -0.06152259 0.0026683803 -0.0035442335 -0.18942857 0.12435056 -0.16903596 -0.09310084 0.18609035 0.15395679 -0.082876906 0.0066179233 -0.12279574 -0.0028404796 0.0106373085 -0.047388908 0.010775454 0.071881376 -0.07811172 0.2655814 0.06723177 -0.036630712 0.055905607 -0.075020306 -0.06540332 -0.101110876 -0.14001584 0.15699238 0.00091424224 -0.06278986 0.14315587 0.027164137 0.23432896 0.28129238 -0.023881778 -0.22575681 0.10271002 -0.15424007 -0.05543676 -0.06520471 0.1765016 0.12769186 0.055829026
135 -0.03255971 0.13531175 0.22093305 -0.12898172 -0.01696668 0.049828816 -0.074844584 0.04330357 -0.004029447 -0.015068966 -0.04009341 0.031229857 -0.047465872 -0.019344928 -0.159336 0.008384216 0.057920363 0.031146817 0.20706505 -0.06341445 -0.13289422 0.26889026 -0.07275131 -0.11648963 -0.042507257 0.116400674 -0.00091565924 0.2046069 0.20393531 0.003045368 0.098116405 0.007862636 0.021698462 0.0009040539 -0.265574 -0.031843465 -0.026820995 0.18318535 -0.116380796 -0.14727329 0.12141299 0.14926457 -0.22478501 -0.09223226 0.06845328 0.02393511 -0.012502933 -0.0061176345 0.2649923 -0.12931912 0.15996628 -0.12117066 -0.023152346 0.029275334 0.15368073 0.24910197 -0.07389772 -0.13659725 -0.011775088 -0.20271634 -0.03265925 -0.20839553 0.054166578 -0.12262816 0.38764432 -0.11559092 -0.16492279 0.13857199 0.123061396 -0.11901851 -0.17066745 0.13013873 0.12949765 0.18335174 -0.119008295 -0.019448267 0.32352814 0.0018597326 0.09702259 0.13995175 0.029306112 -0.12682159 0.03783424 0.05124379 -0.027946385 -0.07123442 -0.2011914 0.065917574 0.10231808 -0.044380747 0.18018246 -0.13778622 0.06622249 0.27703735 0.17406882 -0.082212016 0.35025638 -0.06861187 -0.018438375 -0.06103012 0.17478757 0.030154081 0.01718435 0.048524875 0.20892358 -0.0106319 -0.15815438 -0.074024625 -0.07977674 -0.1581838 0.08574498 0.07223554 0.10659085 -0.079908796 -0.29328725 0.21990336 -0.060143065 0.3065692 0.29376155 -0.1280928 0.05266842 0.1001303 -0.15934172 -0.0471234 -0.10725326 0.2719466 0.1606824 0.08960042
309 -0.11634004 0.044025127 0.25744322 -0.22175337 0.089627765 -0.018179877 -0.06372474 0.02248418 -0.09053392 -0.1394844 -0.048334543 -0.06310443 -0.010045794 -0.035449035 -0.21582288 0.052963562 0.06882028 0.15948972 0.28302008 0.08314335 -0.12890618 0.33117542 -0.16357799 -0.04828034 -0.1498737 0.17617914 0.0065542883 0.24085616 0.023309592 0.03810695 0.1925038 -0.037634786 -0.061077237 0.049388256 -0.12808038 -0.077172875 -0.07215255 0.21429117 -0.10850955 -0.14563964 0.012949244 0.2077084 -0.19734365 -0.08279364 0.034668516 -0.00510681 -0.15587346 0.07583672 0.26666397 -0.118912645 0.029241096 -0.042100247 -0.09507481 0.14366347 0.10201388 0.13123074 -0.23702821 -0.1084355 0.094249 -0.10161456 -0.10870464 -0.16389394 0.12165852 -0.11283953 0.36098662 0.1310784 -0.11806096 0.008975859 0.17474306 -0.13047963 -0.10498128 0.10831856 0.13981007 0.058185257 -0.09023164 0.06820935 0.1874776 0.008187143 0.07591181 0.045163866 -0.00054254086 -0.050842077 0.05024296 -0.07103682 -0.0510618 0.09014658 -0.09882533 -0.010039677 0.023651564 -0.122720286 0.21484265 -0.22507681 -0.06688216 0.33972257 0.17101482 -0.020391995 0.18652797 -0.083406955 0.007510775 -0.04587647 0.023043074 0.038341854 0.054826327 -0.010238882 0.2867891 0.03596122 -0.06967829 0.11286593 -0.06583112 -0.032719836 0.08666433 -0.016541557 0.14377938 -0.009455792 -0.14844255 0.23319648 0.039729476 0.30425796 0.22753946 -0.048438564 -0.07052377 0.2399928 -0.18101269 -0.087751344 -0.14635071 0.12944457 0.14469802 0.02513171
87 -0.015106339 -0.025869897 0.0018354116 -0.1768243 0.2627234 0.00810418 0.07881392 -0.06256128 -0.17023434 -0.23677148 -0.012927691 -0.15895252 -0.20320794 -0.041717663 -0.010620681 0.027356356 0.059998047 0.097021334 0.015796363 -0.041121054 -0.099981934 0.026189998 -0.10872382 -0.024549104 -0.012940829 0.09305254 0.05026218 0.048245378 -0.022712078 -0.13389605 0.1013225 -0.024584496 -0.17951271 -0.16182481 -0.2247683 -0.060441125 -0.00054315245 0.10904203 0.14899056 -0.0525496 0.25308 -0.052870955 -0.07920122 -0.2488103 -0.07647833 -0.083756 0.27683216 -0.0036314172 -0.16245514 -0.08293089 0.14939512 -0.0453918 -0.108995296 -0.08102843 -0.045354422 0.047749225 0.02586165 -0.025833244 0.11845835 -0.094147556 -0.2390168 -0.25328827 0.14165626 -0.1435751 0.013835101 0.055051576 -0.1980895 -0.106600374 0.055467173 -0.1306368 -0.23891045 0.1855271 0.12475976 0.08812817 -0.041274995 -0.09172678 0.13743794 -0.051260788 0.34927484 0.06525445 -0.05441602 0.029664425 0.014660971 0.029645618 0.09914635 0.03676129 0.1448497 -0.14666624 0.14157143 -0.06302114 0.15706052 -0.48517856 -0.29949898 0.026437968 0.31721598 -0.033941727 0.056794103 0.074408546 0.26118377 0.033977166 0.011029427 0.100605555 0.024808237 -0.043707885 0.3182715 0.059160147 0.15755035 0.029380482 -0.006298175 -0.16410036 -0.1144995 -0.16787542 -0.14222318 0.25625527 0.16846761 0.16436441 0.07346147 0.01915177 0.37279034 0.03232348 0.023051048 0.13158152 0.26628208 -0.037590224 0.14240466 0.021309517 0.20901506 -0.01809492
110 -0.023903495 0.055909142 0.31469205 -0.18839867 0.10433678 0.286756 0.0029941688 0.31414977 -0.09236939 -0.24593726 0.021421198 0.07348647 0.025037797 -0.11304747 0.114963114 0.026267428 0.082258545 -0.006698327 0.045154423 0.0043558786 -0.059134405 0.19295295 0.18573953 0.09134652 -0.081610024 -0.116402514 -0.11372435 0.28506172 0.274992 -0.051722895 0.030465674 -0.11317077 0.016054861 -0.107633546 -0.23279013 -0.026302598 0.07305739 0.104334615 0.10569765 -0.23757866 0.19130793 -0.19636278 -0.12171275 -0.13334094 -0.13770828 -0.12763193 0.15382357 0.06000572 0.17730936 -0.04062094 0.16838756 -0.15430036 -0.10731098 0.19718017 -0.14543904 0.16533469 -0.021043876 -0.14456668 0.032038063 -0.037143 -0.16748182 -0.097352386 0.13197085 -0.25544348 0.09420153 0.06345762 0.14654432 -0.052712005 0.09699525 0.16652678 -0.0491767 0.15009503 -0.042923126 0.027455943 0.17195657 0.09464718 -0.0054553393 -0.26692447 0.071005955 -0.17821583 0.07533398 0.102249764 0.019843308 -0.15482575 -0.061727263 -0.26871544 -0.16557671 0.029464783 0.027124904 -0.16620797 0.21536474 -0.085022494 -0.16689147 -0.026750738 0.0866893 0.11120842 -0.122219704 0.07689518 0.19318831 0.09655753 0.005685213 -0.06421122 -0.036577363 -0.09818977 0.022226604 -0.053072684 0.03630987 0.00038268903 -0.18081363 -0.026811175 -0.1707434 -0.20121236 0.086298436 -0.13514286 -0.056199145 0.08322093 -0.018924754 -0.034741797 0.16564168 0.020618254 0.033957753 -0.06286922 0.06770029 0.23863524 0.16374992 0.103720576 0.22753446 -0.08539591
15 0.00702147 0.07113031 -0.0014749505 -0.13744158 0.16916256 0.02369021 0.038779054 -0.03377535 -0.07003769 -0.17564566 0.016794825 -0.043564677 -0.24070565 -0.090450116 0.042135555 0.02314699 0.06360105 0.013791094 -0.07056897 -0.035739437 -0.14737873 0.07009479 -0.07581043 -0.05349501 0.0004877917 0.08235201 -0.05279116 0.09562327 0.04368945 -0.23669861 0.049257915 -0.033616368 -0.13189456 -0.13980058 -0.29947 -0.110190965 -0.008439924 0.107065186 0.107784346 -0.14471447 0.23519626 -0.11863525 -0.13668932 -0.2366467 -0.092724815 -0.12219179 0.3090009 -0.05438671 -0.054730367 -0.13811786 0.17006338 -0.057753798 -0.13157536 0.03363684 -0.010582306 0.13609868 0.103676856 -0.036318205 0.016835546 -0.14938751 -0.22667642 -0.18411328 0.11678914 -0.09928668 0.07448008 -0.015719552 -0.13856323 -0.010671395 0.019601697 -0.054907877 -0.20020099 0.14039963 0.08336182 0.12231338 -0.0975834 -0.0636643 0.13426234 -0.06920885 0.27173162 0.019559825 0.0052080294 -0.022972446 -0.040790748 0.0162444 0.075540364 -0.107972585 -0.11035358 -0.079245076 0.10192424 -0.099485554 0.1362199 -0.38153467 -0.20996264 0.017856866 0.20522708 -0.036785312 0.12725289 0.14346552 0.24400757 0.05733746 0.033014275 0.11568726 -0.06381318 -0.010805421 0.19857714 -0.00025961254 0.15772843 -0.066355065 -0.09380311 -0.17783482 -0.06973046 -0.113172054 -0.112415425 0.14795335 0.028883273 0.11335041 0.039667424 0.14309539 0.33206275 0.010597219 0.10077801 0.025969958 0.13831325 0.072378896 0.08996006 0.15303455 0.19770055 0.050683524
94 -0.10765898 0.06503608 0.32015598 -0.21537258 0.052450772 0.028458523 -0.06138162 -0.04237866 0.068318166 0.021223033 -0.05988709 -0.115465276 -0.13751237 0.0017058161 -0.21861854 0.046359528 0.13181442 0.039924752 0.13323069 -0.074205264 -0.042925384 0.22307837 -0.011033241 -0.024565648 -0.10147656 0.09357374 -0.12440108 0.10676335 0.14261171 -0.07383523 0.029415432 0.043024167 -0.008349857 -0.033366267 -0.22049184 -0.08928596 -0.05712707 0.13446777 -0.015117747 -0.11882602 0.016834905 0.067842916 -0.1683619 -0.27518672 0.072332025 -0.00118738 0.043821517 -0.019025473 0.14459707 -0.26170942 -0.077560015 -0.027765727 0.057227492 0.21192878 0.107605666 0.116564214 -0.21317942 -0.0027045857 0.14095524 -0.13373344 -0.29448682 -0.13642937 0.03693069 -0.021681245 0.09341679 0.096372 -0.0975248 0.051778644 0.17902729 -0.09502758 -0.13782229 0.11741507 0.047642604 0.107799865 -0.019792104 0.10737932 0.030522455 0.016292278 0.14475764 -0.014534392 0.120881885 -0.01915366 0.008846679 0.029422969 -0.047917277 0.025786145 -0.07835225 0.111735694 0.008633644 -0.17339407 0.07990275 -0.29556277 -0.08342872 0.14734234 0.10021659 -0.08399827 0.051873427 -0.066334225 0.1033412 0.03839214 -0.019403473 0.043566555 -0.09238527 -0.12498878 0.26916593 0.0047671394 -0.008956214 0.086672366 -0.038115002 -0.09740562 -0.05009021 -0.07842403 0.21404588 0.051474832 -0.02167963 0.15356767 0.030791856 0.31387192 0.19881536 -0.034219626 -0.09711547 0.043399554 -0.1320808 0.03421731 -0.13726245 0.095986016 0.17675397 0.10132395
199 0.04499512 -0.053690434 0.05325196 -0.16946664 0.2935333 -0.004185427 0.036825363 -0.09771705 -0.17164761 -0.30107546 -0.022459542 -0.14022285 -0.20980969 0.021511093 0.015647933 -0.014088107 -0.007180319 0.09863881 0.028510071 0.05438073 -0.1474163 0.031228773 -0.11977545 -0.055729732 -0.02986857 0.10616218 -0.032248084 0.12141372 -0.06491223 -0.119660646 0.14971243 0.038735114 -0.17353891 -0.12210922 -0.25802186 -0.16530737 -0.051750775 0.12402559 0.059227385 -0.061440315 0.246537 -0.038771287 -0.17944595 -0.22724508 -0.030735062 -0.107837655 0.24663962 -0.018585486 -0.076118104 -0.0860604 0.12416172 -0.043395646 -0.18894455 -0.029776301 -0.017483652 0.051942036 0.024289645 -0.055437606 0.10072687 -0.09141813 -0.21783985 -0.21701348 0.16113225 -0.09624798 0.1148713 0.058174063 -0.21915254 -0.050311618 0.020731647 -0.13247839 -0.20523685 0.13450639 0.16706108 0.061318204 -0.10844897 -0.020411512 0.1771037 0.034858584 0.27832225 -0.017275527 -0.055291563 0.018468967 -0.0012959121 -0.047048252 0.08103002 0.04139106 0.039359096 -0.119149566 0.06341993 -0.07216706 0.14766794 -0.41585925 -0.26747024 0.061371367 0.24096893 -0.014881919 0.104267746 0.115108036 0.22514474 0.024353193 0.03256898 0.110386305 -0.0719211 -0.010854625 0.31819832 0.044682797 0.16432594 0.019793615 -0.03737441 -0.08077702 -0.053359296 -0.11757473 -0.12682012 0.20024982 0.10400856 0.19328809 0.081691705 0.13199528 0.3164994 0.055133972 0.042832106 0.14923653 0.18721 -0.005360527 0.09801644 0.071597055 0.17989153 0.011964183
220 0.037308272 -0.04581125 0.3147401 -0.1979366 0.28755647 0.24527863 -0.0376221 0.28153393 -0.016536731 -0.16032852 -0.05576713 -0.094775274 0.028323103 -0.22045982 0.042215977 0.04003593 0.09473396 -0.01886148 0.1303014 -0.13612162 0.09910228 0.19902411 0.28305218 0.014666924 -0.068061724 -0.12873691 -0.095866226 0.09668251 0.25766855 -0.15851465 0.028714612 -0.10075029 -0.007165698 0.039427787 -0.15287831 -0.10867442 0.07200049 0.037936635 0.055322915 -0.19464591 0.041086614 -0.04209941 0.05830626 -0.25803888 -0.0321856 -0.08507693 0.08432133 0.083729 0.06849138 -0.110320464 0.12757023 -0.08504309 -0.05878911 0.066755824 -0.028634083 0.097446226 -0.007803668 0.004040411 0.0077619976 -0.010430714 -0.22137992 -0.07784909 0.0646978 -0.19975735 0.053369638 0.06981532 0.06799032 -0.108199574 0.14100304 0.058029078 0.0023420013 0.1357558 0.015437865 0.003187881 0.03367338 0.051847715 0.043738723 -0.2435367 0.11476356 -0.07838668 0.101052545 0.042273257 -0.026222907 -0.06562733 0.00644672 -0.2187238 -0.08879613 0.08359079 0.076546125 -0.17072481 0.14709368 -0.22587194 -0.10678948 0.059541944 0.14562501 0.031691983 0.005322485 0.042616114 0.25174955 0.09757882 0.05558034 -0.060115438 -0.1463757 -0.17180692 0.17918494 -0.10005544 0.028643275 0.06865881 -0.046295702 -0.05255597 -0.037401684 -0.18881454 0.0769842 -0.029488618 -0.055702765 0.16736437 -0.048782684 0.100080766 0.15546526 -0.09464316 0.15175524 -0.013336944 0.114684425 0.21161395 0.018252688 -0.13038519 0.15648213 -0.037425827
65 -0.14211676 0.09041709 0.18928547 -0.11134243 0.05556584 0.17435308 -0.0010418962 0.28833532 -0.122549176 -0.2135045 0.07373281 0.12193473 0.013448467 -0.057691943 0.0895132 0.023120113 0.13852204 0.033935014 0.110194944 0.04922524 -0.10942876 0.24375723 0.029344957 0.070242226 -0.12694867 -0.013358735 -0.07363783 0.35852304 0.2609719 -0.038450234 0.102573924 -0.18116775 -0.054548446 -0.14121442 -0.302187 0.05060832 0.064721934 0.17130016 0.06987561 -0.27104855 0.28173742 -0.16165479 -0.1782394 -0.07557879 -0.15966682 -0.11336129 0.14254266 0.11992913 0.16050997 -0.011983514 0.2073885 -0.12500507 -0.14013837 0.16696265 -0.14152509 0.20882262 -0.084797285 -0.19733372 0.039570995 -0.083556294 -0.021614596 -0.1660682 0.08878118 -0.27882344 0.13071375 0.06615507 0.076280124 -0.038029134 0.07768266 0.13401271 -0.039318748 0.14506243 -0.040741533 0.011517806 0.20185533 0.03424434 0.070193425 -0.2771364 0.04783819 -0.0945574 -0.003227664 0.14093804 0.09988487 -0.12537952 -0.025390098 -0.19181912 -0.19346742 -0.0947195 0.033847447 -0.15270276 0.21189226 -0.036950417 -0.18209732 -0.00096602034 0.14960352 0.038417626 -0.09082896 0.048613477 0.09611246 0.026478084 -0.042569917 -0.06624632 0.109074935 -0.007549755 0.013978774 -0.0075369044 0.069409326 -0.07047851 -0.18080075 -0.029149596 -0.18612397 -0.2065559 -0.011425001 -0.11355635 -0.09517134 0.052804183 -0.0062018293 -0.034622774 0.20906208 0.018676337 -0.08501217 -0.03983166 0.015126889 0.131189 0.19353619 0.20510305 0.16161923 -0.06265931
63 0.1922621 -0.0865696 0.38525674 -0.15144502 0.313803 0.14266911 -0.054206684 -0.09180964 -0.067237385 -0.2933966 -0.108393826 -0.19929886 -0.13001867 0.20681828 -0.020582348 -0.06927767 -0.111060046 0.018090079 0.07176628 0.022039045 -0.0010920274 -0.12124657 0.07404838 -0.068744905 0.021579282 -0.042435076 -0.16708156 0.105891734 0.05274549 0.019471165 0.1781498 0.27087465 -0.04143143 -0.108367614 -0.24130055 -0.2668838 -0.049817238 0.12602995 -0.07582089 0.019410344 0.27398676 -0.01637487 -0.23728749 -0.25151289 0.12514342 -0.06220405 0.2747587 -0.042850997 -0.059176896 -0.0647621 0.03722962 -0.19219413 -0.069280274 -0.036303874 0.016743837 0.0069680545 0.017443907 -0.025712281 0.12793489 -0.068075895 -0.2398296 -0.20878944 0.10206531 0.0062553724 0.055496957 -0.043582387 -0.23249108 0.027796827 0.017233297 -0.16689089 -0.21432796 0.12084824 0.1667791 0.08687776 -0.005491868 0.10937648 0.16841048 0.15199137 0.15384029 -0.091341585 0.015923388 0.0035685375 0.04371853 -0.06502251 0.013282176 0.021668132 0.11214705 0.07524572 -0.022644944 -0.058525164 0.036310457 -0.2789798 -0.13723351 -0.06926471 0.18437336 -0.016447144 0.053758085 0.040116798 0.083645 0.010948037 0.10157197 0.05334934 -0.22029334 -0.103078224 0.35375443 -0.06595011 0.024374746 -0.039437916 -0.004483243 0.0112632895 -0.14195034 -0.10699836 0.04044262 0.18371397 0.057472974 0.29447588 0.033659566 0.089788735 0.18710174 0.03281439 -0.0143779125 0.031016514 0.15515226 0.088877045 0.076446086 0.08199281 0.17313536 0.07651917
314 -0.076246895 0.05438592 0.116031215 -0.21121188 0.10124242 0.062247775 -0.012000358 0.023764402 -0.14424513 -0.22963136 -0.05305771 -0.05293724 -0.062467728 -0.054417633 -0.15244235 0.07406422 0.026013909 0.1654297 0.17644747 0.08465996 -0.17892759 0.28084332 -0.14581616 -0.012086476 -0.10327696 0.13638628 0.05601084 0.24835165 -0.013563026 -0.0021509773 0.13743034 -0.05236882 -0.03902751 -0.0019798302 -0.084497504 -0.06634002 -0.06193032 0.18374328 -0.0024526382 -0.1400652 0.035642773 0.10037222 -0.20082933 -0.0839111 -0.024462724 -0.052336957 -0.07058532 0.020553233 0.22324897 -0.120641686 0.044452038 -0.05146217 -0.13449724 0.16427729 0.044119947 0.11967222 -0.1535921 -0.12961756 0.122547366 -0.07261523 -0.20898263 -0.1462242 0.18411216 -0.11943924 0.302858 0.10796394 -0.08735067 -0.018783472 0.12635109 -0.104069546 -0.14660527 0.11127899 0.11219882 0.085508585 -0.09549393 0.056537434 0.107968144 0.016298085 0.13810995 -0.005256147 0.0059811473 -0.05645439 -0.010383094 -0.088874504 -0.051773217 0.04496526 -0.06337458 -0.015458492 0.06370868 -0.10121982 0.24650374 -0.28790253 -0.15420929 0.2759449 0.11315942 0.041842047 0.11346373 -0.016375065 0.08387014 -0.021492992 0.016587613 0.07953605 0.05044058 -0.0028252949 0.20807894 0.039811272 -0.02209674 0.11948499 -0.09725276 -0.0576177 0.069298275 -0.01350631 0.08742071 -0.006579177 -0.033666816 0.16930248 0.0673436 0.16159557 0.19184981 -0.008676714 0.016814552 0.19801521 -0.0775624 -0.024134837 -0.05754211 0.12568063 0.1922083 -0.050648585
179 0.06113925 -0.027550455 0.02456415 -0.151821 0.3441487 -0.017265975 0.047344152 -0.14712054 -0.16075484 -0.33515933 -0.02644591 -0.15351386 -0.23627087 0.02030457 0.023040863 -0.015276582 -0.01990394 0.10631289 0.013543237 0.07870745 -0.16877136 0.023853028 -0.15266918 -0.08819102 -0.034317497 0.13320476 -0.046214856 0.13315289 -0.08934042 -0.15224257 0.17358847 0.04986073 -0.17898282 -0.11358161 -0.26364958 -0.20429866 -0.059247557 0.1443402 0.045263402 -0.08166387 0.27980614 -0.041603014 -0.2016777 -0.24467364 -0.027528262 -0.13336743 0.2830364 -0.028560758 -0.082078256 -0.09402776 0.14720559 -0.06835036 -0.2125493 -0.018095188 -0.015029455 0.061090916 0.061725084 -0.035330117 0.081110284 -0.09669583 -0.22487122 -0.21836889 0.1702591 -0.091269135 0.13312532 0.042836998 -0.2462762 -0.06213521 -0.017821914 -0.15317674 -0.21954486 0.106862016 0.1714654 0.05833398 -0.13818938 -0.039948933 0.17473468 0.032983553 0.26089236 -0.022225155 -0.085071474 0.0009232093 -0.014179521 -0.06290069 0.09944093 0.014492423 0.014324503 -0.14270511 0.07483615 -0.06508733 0.13857996 -0.43171498 -0.29590872 0.045416832 0.25097838 -0.030504096 0.1329257 0.13834277 0.23772196 0.027500762 0.054455608 0.13969173 -0.098399885 0.0040301494 0.3091224 0.026448278 0.18124233 -0.008544752 -0.043652497 -0.07995018 -0.048928186 -0.12389676 -0.1584048 0.22722334 0.08910138 0.18502316 0.09748554 0.13614939 0.3040327 0.06911868 0.06832764 0.14740835 0.19923308 -0.0031859614 0.10984492 0.08819541 0.19228287 0.017936824
50 0.08514722 -0.065153174 0.13246194 -0.18373908 0.31839564 -0.024580888 0.03413494 -0.17556801 -0.10591162 -0.26922056 -0.042216703 -0.16433997 -0.22806096 0.06504751 0.037155963 -0.047365926 -0.025672719 0.043662764 0.0019432269 0.075652696 -0.13036624 -0.0075798677 -0.08123842 -0.08302398 -0.02811195 0.09276315 -0.12106644 0.10017194 -0.057118814 -0.14833105 0.16660768 0.1027542 -0.17794198 -0.10523038 -0.27594608 -0.22680403 -0.06964196 0.1171579 -0.0063187582 -0.07104766 0.25154212 -0.025045823 -0.1918176 -0.2738106 -0.0011387684 -0.14287339 0.28462604 -0.023115054 -0.09946198 -0.119648665 0.11827293 -0.055135973 -0.18702395 0.010932721 -0.0034806894 0.062902875 0.046853736 -0.034583397 0.08794995 -0.09208718 -0.25053436 -0.17846863 0.13313252 -0.035894435 0.0889887 0.045895148 -0.21816565 -0.02922371 -0.010443047 -0.15842775 -0.1971353 0.09019307 0.18127216 0.03268732 -0.14425994 -0.021296324 0.16930759 0.05105031 0.23795582 -0.06829466 -0.0669634 0.0065727676 -0.019550417 -0.07091953 0.09374929 0.002829083 0.0009480425 -0.08337282 0.044001747 -0.099257536 0.1144215 -0.41792673 -0.26449752 0.0147154275 0.2534021 -0.04689591 0.10242068 0.15555796 0.23368126 0.037194584 0.059930116 0.11458719 -0.1592538 -0.009985066 0.33420685 0.0065495754 0.1716691 0.02084244 -0.03513133 -0.06735289 -0.085247844 -0.14358525 -0.12511134 0.23807628 0.06930957 0.20783795 0.08504133 0.17855711 0.27699393 0.07690762 0.06095257 0.10159974 0.19551416 0.040160514 0.08026085 0.060638536 0.18780304 0.06257271
1 0.016061112 0.038452916 0.24709806 -0.16666669 0.057325374 0.34292445 -0.05506276 0.3183542 -0.08027436 -0.21477291 -0.03313751 0.0035014942 -0.04175907 -0.13370332 -0.061240498 0.084641844 0.06709434 0.032112435 0.06719364 -0.18890277 0.012194287 0.22560938 0.24682306 0.053214204 -0.027679939 -0.12607884 0.007170367 0.23823422 0.3387656 -0.04400656 0.009589629 -0.039856456 0.100418195 -0.11220134 -0.19497503 -0.0101410635 0.07424071 0.067547 0.14263548 -0.1544009 0.100612655 -0.14736569 -0.037840765 -0.1873597 -0.1005789 -0.055188753 0.16170873 0.02964358 0.17582281 -0.10822787 0.10338211 -0.18521902 0.027894063 0.12531583 -0.064493865 0.09096609 -0.024681272 -0.119189896 0.06400375 -0.02958377 -0.28387824 -0.14474438 0.09848087 -0.20638864 0.06304801 -0.018741364 0.057659414 -0.009540413 0.17056425 0.11395028 -0.14672832 0.22523405 -0.063801095 0.16400564 0.18615477 0.08169344 -0.041299064 -0.15703128 0.17890564 -0.057313062 0.16912436 0.008626371 -0.0052868146 0.025337284 -0.08753588 -0.1971415 -0.0035048197 0.16649325 0.099826306 -0.117781416 0.21483983 -0.16060753 -0.09385491 -0.010137666 0.035238262 0.14864789 -0.104652755 -0.03996684 0.14252242 0.0929117 0.030486202 -0.015819501 -0.025015103 -0.20776573 0.073228136 -0.028894909 -0.066126205 0.02924586 -0.15884824 -0.065053836 -0.11579482 -0.12885912 0.22767298 -0.10926802 0.017403234 0.13571486 -0.03967403 -0.06523746 0.13545018 -0.108145185 0.09796014 -0.08988304 0.09922721 0.2202791 0.12255746 0.045639656 0.24421237 -0.1140016
12 -0.21877399 0.07229531 0.3032082 -0.15137377 0.049219906 0.03373283 -0.11085005 0.007711845 0.09951811 0.0771616 -0.02316423 -0.1074518 -0.10542406 0.06829172 -0.2777303 0.03474308 0.21360628 0.03430474 0.19246928 -0.079317525 -0.03486277 0.2564038 -0.012695634 -0.044433624 -0.14241385 0.1369278 -0.2186071 0.11881204 0.19652666 -0.06689652 0.011198018 0.03278865 -0.034175154 -0.074359305 -0.30537438 -0.021156432 -0.03288823 0.17360324 -0.02626229 -0.08157748 0.09024199 0.06846626 -0.2272007 -0.28623372 0.06899195 0.0036622367 0.08005049 0.053840734 0.13259202 -0.27157778 -0.15691677 -0.042332955 0.080501646 0.23286368 0.068622544 0.14217821 -0.28127542 0.021856291 0.16882741 -0.13729174 -0.20571259 -0.1649262 -0.02174063 0.0025044028 0.022906823 0.13966288 -0.04900966 0.06077254 0.21079554 -0.05065274 -0.119890854 0.13528793 0.0035864017 0.07694246 0.11480902 0.1557508 -0.002872462 -0.08757615 0.090485744 -0.020250589 0.13906986 0.075437926 0.10910657 0.03769004 -0.05914174 0.068983145 -0.09766563 0.103026725 -0.04876674 -0.20336722 0.012574532 -0.19292302 -0.048249714 0.06951812 0.12309737 -0.13718008 -0.0391494 -0.11838359 0.03337727 0.03612399 -0.07531697 0.019390438 -0.07997876 -0.1845813 0.28088048 0.014760207 -0.0033398636 0.047847405 -0.026398024 -0.11103455 -0.16877802 -0.15552811 0.25156066 0.038426902 -0.05192499 0.09756181 0.03504042 0.30453208 0.26297745 -0.04135532 -0.24442798 -0.0029890237 -0.15899798 0.0069233896 -0.122257255 0.19652903 0.17716344 0.11484482
115 -0.011810649 0.029623711 -0.044890624 -0.1736314 0.18785617 -0.054075517 0.084220536 -0.13059546 -0.10508465 -0.2028323 0.002095648 -0.08913512 -0.24765587 -0.07211241 0.040264115 0.029726326 0.040666666 0.08669559 -0.043582052 0.07498352 -0.23040222 0.12773617 -0.17529479 -0.06744854 -0.057122547 0.1595406 -0.022999123 0.12596631 -0.09163779 -0.20122433 0.108239435 -0.043408845 -0.16166775 -0.075290464 -0.23689085 -0.16281568 -0.052713715 0.13560371 0.091919094 -0.15642473 0.1924901 -0.04253461 -0.16455756 -0.2396854 -0.098969825 -0.15552637 0.22410315 -0.037265427 0.04659429 -0.16211477 0.14844134 0.0035198429 -0.22856344 0.10572122 0.008074034 0.1449053 0.038213253 -0.073766224 0.07119488 -0.118858844 -0.28995836 -0.16558166 0.19948368 -0.11708313 0.1820554 0.10448613 -0.16454671 -0.052394476 0.021928119 -0.10998685 -0.20211309 0.10517 0.13717405 0.07851018 -0.19964021 -0.070228554 0.13288392 -0.011431568 0.27358362 -0.047971576 -0.060593296 -0.03327849 -0.071631104 -0.09148879 0.06988409 -0.03157788 -0.09012905 -0.13906324 0.086890675 -0.105175935 0.1901364 -0.4581173 -0.29465926 0.12506603 0.22232687 -0.023577614 0.14500858 0.16452141 0.28747553 0.038954075 0.0294781 0.16209455 -0.0750039 0.032780863 0.24439956 0.039631452 0.20165715 0.05132784 -0.07794248 -0.16384114 0.011091178 -0.090609916 -0.13961582 0.16392842 0.042467818 0.10212199 0.1004808 0.20044647 0.32021382 0.0654745 0.11839196 0.1494557 0.10630779 0.02368343 0.043861005 0.12057161 0.22725882 0.0011213728
101 0.16635829 -0.11759571 0.37856078 -0.119070984 0.3825123 0.12301032 -0.04339069 -0.10175735 -0.086407065 -0.30784056 -0.0820196 -0.20142542 -0.15000834 0.25086805 0.007272319 -0.10100443 -0.075176336 -0.012179616 0.08605826 -0.00081575237 0.030617408 -0.17458083 0.09544632 -0.064293176 0.007394645 -0.038535193 -0.22578348 0.1056154 0.09316401 0.002558869 0.19551034 0.29655203 -0.10110256 -0.18063857 -0.3478754 -0.27228266 -0.026627086 0.1327327 -0.07618923 0.031914838 0.37208104 -0.06257751 -0.24894732 -0.30013576 0.124551095 -0.06757194 0.37751397 -0.022649882 -0.18835594 -0.026162066 0.043586925 -0.20950012 -0.08607067 -0.088354975 -0.042277887 -0.017385015 0.04636319 -0.01282862 0.13649794 -0.049737163 -0.1910502 -0.26139584 0.06589284 0.016995788 -0.052026417 -0.019740822 -0.24040377 0.010673937 0.0036854595 -0.14643332 -0.20548669 0.14512594 0.15093161 0.057467055 0.09166016 0.103977084 0.16209489 0.08772955 0.19191645 -0.0920642 -0.0011591911 0.07084944 0.09590643 -0.042980578 0.06756482 0.022351876 0.15529035 0.055361442 -0.044522375 -0.08175068 -0.001016262 -0.27287933 -0.16334921 -0.18205951 0.2534852 -0.044692807 -0.019811617 0.050051138 0.103489004 0.031232793 0.059424717 0.049805418 -0.24268115 -0.15005067 0.3728598 -0.062496778 0.08848661 -0.088008076 0.007341725 0.044106577 -0.2642329 -0.19442864 -0.0049382737 0.24079342 0.12231101 0.29056388 0.04970682 0.026198393 0.21110938 0.060925458 -0.088270225 -0.02515913 0.25836316 0.10026431 0.1645944 0.08337179 0.17184304 0.09258587
133 -0.0086318515 0.028394345 0.18950777 -0.1878511 0.06878043 0.28261822 -0.03041847 0.28847164 -0.07420157 -0.17045896 -0.04257499 -0.029681254 -0.03981083 -0.1988521 -0.060218457 0.11659577 0.10509816 0.04411207 0.045265507 -0.18960728 0.01452173 0.23667677 0.20563456 0.065389656 -0.045435745 -0.08148372 0.031066867 0.17538612 0.2707745 -0.092144206 -0.025336146 -0.09620905 0.0751387 -0.08448118 -0.14674862 0.015275013 0.056060374 0.07201161 0.16233395 -0.15282093 0.041484844 -0.11957018 -0.012653703 -0.20790638 -0.09845639 -0.04458254 0.11389432 0.018079845 0.13394557 -0.13239701 0.08274107 -0.13204807 0.039094068 0.121886015 -0.041161537 0.08015745 -0.044452317 -0.08004353 0.07968814 -0.032567102 -0.30057073 -0.1103202 0.09942362 -0.20714207 0.03870255 0.012867235 0.049521726 -0.042994063 0.1785718 0.06915225 -0.13715805 0.21778391 -0.050401907 0.16355526 0.12302343 0.06949219 -0.046114247 -0.17069103 0.20697498 -0.0383267 0.1657912 0.010529455 -0.021769248 0.014975259 -0.07099353 -0.16506793 0.003620495 0.12235505 0.118504 -0.1502384 0.22021882 -0.23858824 -0.14417009 0.04201464 0.053362776 0.12510222 -0.08589502 -0.039660454 0.18306896 0.10474386 0.012223387 0.003325599 -0.00026327433 -0.17481294 0.11382842 -0.01604627 -0.035173588 0.0765956 -0.10711987 -0.09853409 -0.083545975 -0.13724482 0.191439 -0.074190766 0.05443211 0.094150335 -0.010720138 -0.02702079 0.17656499 -0.10712952 0.10699326 -0.028364377 0.09268197 0.18669574 0.08886063 -0.015571609 0.24064489 -0.0981872
52 -0.011815015 0.021622224 0.28846493 -0.20722127 0.10984072 0.37673092 -0.07226941 0.3615707 -0.024297526 -0.18682101 -0.028198302 -0.017421696 -0.040867522 -0.21181504 -0.07035799 0.103308715 0.10395952 0.015875783 0.071126275 -0.25510412 0.058167502 0.2512055 0.319467 0.05758043 -0.019002736 -0.15151961 -0.023770189 0.19624914 0.3833879 -0.12187395 -0.007086469 -0.06786316 0.0983806 -0.09071004 -0.18226565 -0.010322804 0.09287026 0.042290747 0.15094484 -0.19798292 0.06643534 -0.14272559 0.019861054 -0.24621311 -0.09689214 -0.041807983 0.13817811 0.05473523 0.15270208 -0.14760052 0.09971739 -0.15502502 0.059731465 0.12466594 -0.052144725 0.0978039 -0.037875004 -0.082282275 0.07548048 -0.032002755 -0.32331967 -0.13637385 0.081492595 -0.20669286 0.0303225 0.006401296 0.0994535 -0.022950605 0.189347 0.13679127 -0.13398191 0.23779117 -0.08272033 0.15541087 0.1795865 0.08609787 -0.07125513 -0.22294551 0.19961463 -0.06030285 0.20363127 0.0044554924 -0.015895516 0.04598869 -0.05776382 -0.21626213 -0.01403159 0.19699952 0.121889286 -0.15702966 0.18988903 -0.19470026 -0.07063908 -0.01944938 0.042000335 0.13802542 -0.11218131 -0.023726914 0.18360029 0.118775606 0.011895443 -0.032907072 -0.054314133 -0.25923905 0.07374538 -0.038262874 -0.04293369 0.050224055 -0.13277751 -0.07959148 -0.09207354 -0.14812872 0.22294189 -0.09600525 0.037266504 0.10876897 -0.040041957 -0.048956748 0.12387809 -0.13871226 0.11660552 -0.11257657 0.10842799 0.23981436 0.08602284 -0.019459484 0.20833154 -0.083342835
21 0.20324492 -0.12433083 0.3486198 -0.1427911 0.361997 0.1168862 -0.036709454 -0.09003302 -0.0960003 -0.29528543 -0.08713832 -0.19771849 -0.1380221 0.18310761 0.01819236 -0.08817996 -0.103098124 -0.004762853 0.07878995 0.007765397 0.0080770375 -0.11989892 0.082577325 -0.09069207 0.015923737 -0.033173684 -0.15246227 0.094047636 0.059399005 0.014753214 0.19196296 0.24865499 -0.07009836 -0.11456259 -0.27631783 -0.24790165 -0.0449942 0.12340739 -0.07406898 0.0139725 0.29319862 -0.016584426 -0.20091933 -0.24684197 0.114589766 -0.067131884 0.29821038 -0.018374084 -0.1333994 -0.026528317 0.08461924 -0.18177766 -0.09011039 -0.10292351 0.004504037 -0.0019817604 0.056875158 -0.030282615 0.08812877 -0.055318728 -0.1748229 -0.2152344 0.0776961 -0.007146573 0.038768917 -0.043700583 -0.2413954 0.0053841993 0.015472754 -0.15639015 -0.19410437 0.1365441 0.16915622 0.07913438 0.0060390458 0.058918968 0.1946994 0.10570597 0.1814506 -0.054576166 -0.010505195 0.015402449 0.044915404 -0.038103566 0.058740348 0.005903175 0.11403992 0.054426793 0.003785409 -0.047915492 0.049991418 -0.28398228 -0.13942708 -0.08080763 0.2308509 -0.023329709 0.06743731 0.062135257 0.10318056 0.0011662687 0.1074609 0.052399997 -0.20113365 -0.094711386 0.35331032 -0.06059132 0.046875756 -0.0642557 0.013216127 0.01811171 -0.15237384 -0.1246581 -0.014257734 0.20969407 0.06416849 0.27783465 0.041753076 0.07149165 0.20388953 0.018411336 0.016731845 0.02127322 0.22380765 0.064807236 0.11714043 0.0581809 0.16001713 0.07825133
70 -0.018486302 0.0007135823 0.024882996 -0.17409118 0.2565637 -0.107804276 0.090689614 -0.16949578 -0.16401356 -0.1978472 -0.005271227 -0.1258119 -0.21591623 0.0032988824 0.0068144468 -0.012694617 0.046672344 0.08718643 0.06090353 0.062240932 -0.20052114 0.067727454 -0.21280819 -0.07307353 -0.05966413 0.17995298 0.0013680782 0.11225919 -0.06411894 -0.13627356 0.14899732 -0.01765952 -0.22074212 -0.13626152 -0.27025336 -0.09373668 -0.033899933 0.16562457 0.0640033 -0.0904199 0.28189385 0.014892299 -0.17596589 -0.22554784 -0.05417735 -0.115503184 0.2569637 -0.011146128 -0.09955388 -0.09067882 0.16390657 -0.023936346 -0.1899377 -0.04013786 -0.0139890425 0.10549005 0.020633198 -0.05346719 0.08520256 -0.106814444 -0.17889585 -0.25574583 0.14437954 -0.087965235 0.12372565 0.0707246 -0.23201849 -0.059019573 0.03527727 -0.17084551 -0.21588421 0.13184924 0.19167048 0.055288352 -0.12428323 -0.097493894 0.20694187 -0.0048785815 0.30637228 0.039788757 -0.10669608 0.015608724 0.016933 -0.017907975 0.10007321 0.04574521 0.046522602 -0.18419771 0.10398037 -0.07242465 0.15603827 -0.44276842 -0.29157645 0.09227152 0.3540529 -0.088676386 0.1356257 0.10475794 0.23855571 0.0024923806 0.04286537 0.11747994 -0.0028867563 0.03237405 0.33888775 0.062690265 0.17516454 0.007064158 -0.030226374 -0.17739075 -0.06980038 -0.14733641 -0.17552306 0.253298 0.071692035 0.17033148 0.08579429 0.12512653 0.365861 0.076038815 -0.017045142 0.17032546 0.18566144 -0.07863976 0.08883893 0.11596202 0.20774189 0.009907955
239 -0.05805326 0.015334984 0.39582267 -0.15992114 0.1157876 0.26083308 -0.022893107 0.31785306 -0.03242037 -0.23269445 0.04363003 0.059692994 0.048931047 -0.04771538 0.11537325 -0.019698812 0.13017322 -0.040483505 0.086127825 0.052187502 -0.0059707942 0.22438465 0.21065907 0.090803966 -0.13263221 -0.11732028 -0.2504143 0.33399543 0.31936204 -0.029236495 0.09126011 -0.06575187 -0.018857803 -0.09897976 -0.3123287 -0.03471737 0.039269593 0.12887919 0.015205323 -0.2951459 0.21481036 -0.18628211 -0.1401643 -0.16960914 -0.10364787 -0.14592579 0.12495669 0.15002972 0.19250254 -0.027835388 0.12849885 -0.13218781 -0.11539742 0.27307025 -0.14557964 0.18299775 -0.108485915 -0.1739429 0.0493764 -0.019538252 -0.12961985 -0.08862268 0.079340406 -0.2244844 0.08545743 0.12452005 0.1514303 -0.05252328 0.115946636 0.19448973 0.010867949 0.12598379 -0.05661563 -0.028829848 0.26883346 0.12763293 -0.012788079 -0.3152486 -0.027686626 -0.23376398 0.06690157 0.17220144 0.07495358 -0.19481672 -0.056567036 -0.2666477 -0.21305682 0.052357245 -0.034088098 -0.23004544 0.20916305 -0.017424105 -0.16336748 -0.038274158 0.11588567 0.07856332 -0.17495371 0.058912512 0.1239063 0.08377034 -0.050934315 -0.09148131 -0.058131132 -0.10966955 0.039075837 -0.06251833 0.05355853 -0.022588966 -0.18074638 0.060961228 -0.23523837 -0.27278617 0.113314815 -0.15555355 -0.10830378 0.068516806 -0.010360832 0.053593613 0.12208129 0.010626239 -0.08697884 -0.124937594 0.025158115 0.26138824 0.15352924 0.13580322 0.20167507 -0.011720608
217 -0.05944393 0.048277978 0.26192853 -0.13042073 0.105977304 0.26800415 -0.007161517 0.35696745 -0.04017322 -0.18386707 0.04265203 0.08121914 0.017611757 -0.16121137 0.11890125 0.026578724 0.15510441 -0.040872745 0.037541844 -0.04377833 -0.008577431 0.26350245 0.24105093 0.08310712 -0.10181381 -0.15011361 -0.17382047 0.31289256 0.3614647 -0.121173725 0.034117263 -0.1570879 -0.019916773 -0.109900534 -0.302057 -0.01343059 0.09878554 0.088969044 0.105094016 -0.3165842 0.19980687 -0.22913294 -0.07614155 -0.19324644 -0.17741273 -0.15291005 0.17610563 0.12278151 0.17496021 -0.06835097 0.17622447 -0.12218471 -0.11015889 0.24890365 -0.16636996 0.20013219 -0.043338858 -0.15571636 0.019001525 -0.033823498 -0.17172304 -0.10321316 0.085765325 -0.28973123 0.05479196 0.11281762 0.1912902 -0.07792089 0.13000236 0.23021021 -0.020819439 0.17544846 -0.092352115 0.0038966397 0.23288262 0.0855817 -0.040020026 -0.39139047 0.06664144 -0.20127572 0.08756708 0.15013312 0.03440471 -0.14903551 -0.037832867 -0.32595906 -0.23010112 0.041219395 0.036955412 -0.23691626 0.23115738 -0.086067505 -0.17927493 -0.05353945 0.12411163 0.09360145 -0.16885257 0.08223156 0.23506247 0.10419361 -0.046625488 -0.08231231 -0.04789568 -0.12787275 0.021733455 -0.05548787 0.08699102 -0.01639798 -0.19505723 -0.035370827 -0.21587215 -0.27879432 0.08271731 -0.15237981 -0.08668158 0.044454597 -0.02322042 0.0006476933 0.16096587 -0.017082853 0.0034428143 -0.13199621 0.071368925 0.28473526 0.1612552 0.103861526 0.2329885 -0.0755744
256 -0.2510339 0.13446483 0.22533512 -0.18249333 -0.016899219 -0.031008303 -0.11309939 -0.026112115 0.0839766 0.0951159 -0.037527405 -0.09117035 -0.115898915 0.00729293 -0.3786719 0.08690294 0.23556969 0.094949774 0.24733458 -0.085688174 -0.086798 0.3755651 -0.12695502 -0.050335 -0.15429077 0.21857092 -0.09744416 0.15904981 0.15903834 -0.058440488 0.04942201 -0.019087568 -0.045920745 -0.03815765 -0.26113462 0.009377822 -0.055907115 0.21311606 -0.046634294 -0.12221363 0.011374053 0.17421882 -0.24194327 -0.24204205 0.068360664 0.03675155 -0.03251118 0.04778542 0.23158373 -0.30637005 -0.12439848 -0.032243337 0.08005659 0.23920621 0.1367979 0.16729674 -0.3324092 -0.020944392 0.168719 -0.16936009 -0.22735058 -0.21062513 0.024224363 -0.0054829577 0.16943568 0.13083152 -0.1081104 0.0781079 0.25795242 -0.12363535 -0.17286426 0.15907145 0.047730897 0.14845157 0.019454593 0.11518737 0.05958758 -0.045147147 0.12614326 0.06972355 0.14191212 -0.022808684 0.073610105 0.08752507 -0.07157332 0.113883935 -0.1061504 0.090166405 0.02384477 -0.18774499 0.104707964 -0.28597748 -0.044985067 0.24847218 0.14984685 -0.14134753 0.09121132 -0.17245245 0.011650864 -0.0013818414 -0.06433638 0.057525467 0.018277043 -0.1264665 0.31590977 0.04532998 -0.06727735 0.087682605 -0.051013667 -0.17276192 -0.033128858 -0.06654258 0.27429414 0.029993424 -0.08900651 0.14983654 0.054606598 0.3827791 0.31569922 -0.10109891 -0.20282918 0.09518249 -0.23273371 -0.08096392 -0.20285739 0.23355313 0.19612297 0.099587575
121 -0.014049066 -0.021664621 0.042360388 -0.22391118 0.3060221 -0.06822528 0.050660584 -0.1535908 -0.09101925 -0.14830354 -0.040626492 -0.19445415 -0.26811126 -0.08544192 -0.047379706 0.042699475 0.09081324 0.06782828 0.011114602 -0.0124003375 -0.13647361 0.095887646 -0.14823467 -0.0804781 -0.050393354 0.16359793 -0.045929134 0.0234841 -0.075444266 -0.2542091 0.07824559 -0.031456638 -0.20753522 -0.10047668 -0.24159467 -0.1590016 -0.03713779 0.11216611 0.083766446 -0.06242428 0.16268478 0.0022434462 -0.110259056 -0.32257634 -0.036514923 -0.10412241 0.23726273 -0.031023107 -0.110008545 -0.20742463 0.06745632 0.031451907 -0.12833387 0.017295819 0.020007778 0.049516734 0.0015776216 0.045809284 0.09777031 -0.10493782 -0.30553815 -0.16673969 0.11533626 -0.047343858 0.03952847 0.10276753 -0.19743986 -0.08728634 0.06467404 -0.157279 -0.20253725 0.12754816 0.14816938 0.069541484 -0.18738505 -0.06584232 0.11714911 -0.03110292 0.30977517 0.031734474 -0.021091059 -0.01758605 -0.0321475 0.0057562063 0.10760317 0.029992158 0.012454901 -0.11192094 0.11685286 -0.12058572 0.12190556 -0.5454362 -0.29489073 0.08161879 0.2714058 -0.08445643 0.12518819 0.11826081 0.32623217 0.05942335 0.0191177 0.14682189 -0.10865369 -0.042022582 0.36519304 0.035706557 0.20656066 0.09271228 -0.008992459 -0.20135778 -0.044301286 -0.15286306 -0.10472958 0.27578953 0.108761 0.17416291 0.09482103 0.25106528 0.39534575 0.037772797 0.056385018 0.15808727 0.17715071 -0.015838103 0.004146288 0.012961678 0.22930083 0.03400047
78 -0.026915543 0.040110648 0.017179098 -0.17140844 0.188408 -0.09690228 0.025343796 -0.17271192 -0.036310628 -0.10482145 -0.02976177 -0.12661849 -0.2682132 -0.06038472 -0.032701872 0.014010375 0.09076389 0.033443782 -0.029539179 0.029722469 -0.19055824 0.13808697 -0.16045332 -0.09734823 -0.056774504 0.17678416 -0.09262261 0.08663676 -0.045987982 -0.23511332 0.067807 -0.025629576 -0.14716941 -0.07027265 -0.2698947 -0.1650978 -0.053887367 0.14457618 0.02297166 -0.13222986 0.15404695 0.0015530864 -0.18868715 -0.28762546 -0.04350455 -0.12975103 0.22229989 -0.050038174 0.026951065 -0.24778874 0.09906013 -0.003244413 -0.13910015 0.12970367 0.043125354 0.17221555 0.0077432203 -0.01927869 0.05685565 -0.16744427 -0.2774747 -0.14583391 0.1145104 -0.04379581 0.14298216 0.07054224 -0.1729074 0.006422133 0.053212073 -0.12438337 -0.2118997 0.09727815 0.13680497 0.09150678 -0.21833366 -0.056792777 0.13770312 -0.014522079 0.24163772 -0.006744756 -0.018039646 -0.04082102 -0.056378834 -0.033050902 0.06319057 -0.047881346 -0.14222234 -0.08475985 0.09578227 -0.12994245 0.14569256 -0.41951936 -0.22616209 0.11749251 0.2195419 -0.08505858 0.17187718 0.14072722 0.26059258 0.032612752 0.03201947 0.16510312 -0.12860349 0.009306203 0.27681607 0.02453399 0.1510598 0.0356839 -0.042866684 -0.21118498 -0.020299505 -0.1049679 -0.06964854 0.18517415 -0.025814986 0.123876266 0.0782789 0.3009832 0.34726918 0.02826127 0.07795955 0.104991235 0.055578243 0.013887969 -0.029139157 0.13569401 0.24591272 0.06809794
296 -0.056627918 0.09725111 0.10264141 -0.18408817 0.016656782 0.01975737 -0.05358857 -0.03091933 -0.069541976 -0.16630647 -0.04469873 -0.047548823 -0.13154781 -0.061733916 -0.20563248 0.086366184 0.036126494 0.1664584 0.15791951 0.07016129 -0.19287913 0.33645344 -0.18306577 -0.06369843 -0.091878705 0.18834312 0.038572792 0.24691789 -0.014017276 -0.015466297 0.13496402 -0.015258781 0.006154531 0.03152098 -0.1178195 -0.09289264 -0.100123696 0.19152904 -0.046883382 -0.16536015 0.0002015221 0.14425601 -0.24204338 -0.11744832 0.01473814 -0.042117808 -0.087220944 -0.00844236 0.34330934 -0.20462558 0.026960652 -0.06657442 -0.101231955 0.21762095 0.1538997 0.1658975 -0.17361848 -0.14380614 0.11982558 -0.14005509 -0.25209638 -0.15828277 0.18313888 -0.08673918 0.40626916 0.07319986 -0.15583742 0.06310265 0.15053822 -0.14615351 -0.20889573 0.12838073 0.1378636 0.17131935 -0.17215012 0.057281066 0.16204464 0.08265117 0.13216262 0.025215676 0.042488232 -0.11800229 -0.04104969 -0.057404015 -0.06683609 0.04138128 -0.14720596 0.03529204 0.065144375 -0.10133501 0.25408506 -0.3208117 -0.10886254 0.3541872 0.08061577 0.028415369 0.23468783 -0.023345545 0.05613854 -0.0325077 0.03725643 0.12351739 0.01519181 0.026204944 0.23257521 0.044023093 -0.069317475 0.104869284 -0.108242825 -0.1006519 0.15625814 0.06129582 0.16018136 -0.02610883 -0.11305333 0.17603175 0.058303133 0.3415215 0.24335712 -0.07259365 0.055643115 0.20433709 -0.17439336 -0.04447817 -0.14081258 0.21398269 0.21359196 0.014817825
279 -0.01846554 0.10807315 0.20334023 -0.16217835 -0.010946809 0.12095656 -0.041840255 0.0015912118 -0.07412466 -0.09781039 -0.07382347 -0.04992368 -0.097067274 0.06198486 -0.25382978 0.071438916 -0.0041042175 0.097201236 0.16460443 -0.11892518 -0.10780474 0.16198336 -0.058223076 -0.049909975 0.01097425 0.082018025 0.1394714 0.1604247 0.15141223 0.06952688 0.07709711 0.063233234 0.04639485 -0.11028805 -0.16286997 0.018046979 -0.0035135187 0.16202706 0.032493986 -0.010742096 0.15571496 0.08515039 -0.191916 -0.10736976 0.055104904 0.053919315 0.09191968 -0.056344133 0.13252431 -0.10335032 0.08622979 -0.19275928 0.064417504 -0.03541485 0.11374484 0.12759252 -0.07631683 -0.09870181 0.10815756 -0.13583335 -0.17048697 -0.28997508 0.08775278 -0.07998586 0.23789236 -0.1365043 -0.18831894 0.09451533 0.13672888 -0.16589198 -0.27615884 0.20428869 0.12972583 0.2559075 -0.008317714 0.00411675 0.19946986 0.101556525 0.2382166 0.18047257 0.055244006 -0.115978785 0.06230634 0.14517574 -0.05752621 0.06368155 0.080620624 0.06433365 0.1395998 0.020397456 0.14919835 -0.25072834 -0.0034947724 0.16876559 0.15586859 -0.0023318906 0.19458282 -0.13219552 -0.036651198 -0.05493399 0.1296291 0.0622508 0.1043835 -0.050092693 0.25258255 0.026538955 -0.16540723 -0.020053746 -0.053134963 -0.16710028 0.003932937 0.056869484 0.17752557 0.04214758 -0.029737048 0.24355684 0.006230723 0.04280693 0.27781847 -0.116378814 -0.00468113 0.1086152 -0.00682582 -0.061808184 0.0005968597 0.22048843 0.21229751 0.009537589
316 -0.008891241 0.05558148 0.17100278 -0.19955602 0.05932661 0.122474834 -0.059103694 0.06906398 -0.14518946 -0.30003414 -0.059559286 -0.03188944 -0.058139566 -0.042064775 -0.16698842 0.07088662 -0.029340465 0.17953867 0.15498407 0.11788557 -0.16968887 0.28095952 -0.09703852 -0.0021838113 -0.09886408 0.11619023 0.021917751 0.29514724 -0.015347682 0.06359512 0.14237536 0.013263215 0.050743826 0.027463429 -0.053481262 -0.11748247 -0.095001444 0.17096226 -0.04881259 -0.13436483 -0.010035588 0.07216347 -0.2475931 -0.063561544 0.0033134723 -0.043578282 -0.11780757 0.00027234387 0.33592352 -0.11444691 0.015499213 -0.097240634 -0.1301699 0.23095942 0.0822155 0.078881696 -0.15658806 -0.17222561 0.12499804 -0.054036614 -0.24000385 -0.106813036 0.19809574 -0.08498647 0.35274616 0.09190051 -0.101321705 0.040069006 0.14067253 -0.07872104 -0.17224823 0.12376195 0.11219149 0.13140675 -0.08486272 0.13806976 0.10836136 0.09097776 0.10921558 -0.07017599 0.067184985 -0.06316248 -0.02461903 -0.12305 -0.102306284 0.03150062 -0.1011789 0.081885345 0.010713851 -0.11190334 0.28485256 -0.23737346 -0.12876865 0.2907895 0.017023146 0.12558848 0.091689914 -0.027448103 0.022670818 -0.010126434 0.020665197 0.099490784 -0.027025498 -0.021729985 0.16708702 0.041106652 -0.07539684 0.12733722 -0.14850229 0.012176039 0.10795346 0.0155688925 0.20223875 -0.093242675 -0.051544942 0.18326405 0.062210187 0.22183713 0.10992296 -0.032121412 0.03827119 0.16763012 -0.15314852 0.031717055 -0.08685134 0.15957074 0.18774822 -0.038479984
71 -0.039817557 0.040086266 0.26054665 -0.14009775 0.12537715 0.35102406 0.00688534 0.43332663 -0.12978895 -0.33973786 0.053673986 0.1204297 0.05699697 -0.11369159 0.16295177 0.009797098 0.08988087 0.0007362896 0.06858466 -0.00046165194 -0.04620521 0.2198596 0.21411927 0.1127245 -0.093057305 -0.15408085 -0.10718928 0.39740995 0.3503583 -0.036833167 0.09114358 -0.15666153 0.0014811449 -0.15426743 -0.296644 0.016432162 0.09786117 0.1277637 0.11882017 -0.31315294 0.29057494 -0.27000412 -0.10925034 -0.11693462 -0.1798401 -0.15275165 0.19418229 0.1280951 0.17497246 0.032319736 0.25027242 -0.1860598 -0.15050593 0.18094154 -0.19870575 0.19907795 -0.021248551 -0.22681409 0.03503953 -0.0214992 -0.11610456 -0.15098244 0.12311974 -0.3216724 0.09469775 0.050495867 0.13557158 -0.08004883 0.0898968 0.21612528 -0.04251564 0.18225913 -0.06807587 0.029398207 0.2722207 0.08002161 -0.004424995 -0.3381072 0.06259052 -0.1752083 0.042854756 0.14147708 0.06686869 -0.15746117 -0.042691678 -0.31655124 -0.16957839 -0.0146448165 0.04083767 -0.16947 0.25641963 -0.035467196 -0.19068505 -0.068271324 0.12289385 0.14546216 -0.15812992 0.083252594 0.16312933 0.07896385 -0.007158505 -0.09182824 0.046690952 -0.07889927 -0.023461942 -0.04641699 0.061544217 -0.055180132 -0.22847903 0.0118885925 -0.21140553 -0.24572012 0.0394788 -0.17865235 -0.057274822 0.061151013 -0.016079074 -0.11768787 0.14785735 0.0031854087 0.0070267143 -0.10504102 0.12022955 0.26531476 0.25839937 0.14409871 0.2252399 -0.11745966
313 -0.120016225 0.051182143 0.24020603 -0.21854763 0.092904545 0.12407916 -0.08323441 0.14791048 -0.06984871 -0.16842926 -0.045760274 -0.042686652 0.012006515 -0.112583265 -0.21360874 0.11128211 0.07959539 0.17361616 0.24978754 0.02088627 -0.09938428 0.360079 -0.07158912 0.003642278 -0.12483958 0.11468677 0.027088674 0.24978603 0.068389624 0.0061688796 0.1256582 -0.091196105 0.011261985 0.056103718 -0.07547492 -0.06421743 -0.04819752 0.1632182 -0.027857915 -0.15250812 -0.044392798 0.1250228 -0.16325398 -0.092921264 0.016788794 -0.01300022 -0.17210914 0.0722156 0.29116872 -0.15531969 -0.024619188 -0.05087965 -0.057664312 0.17966548 0.067809924 0.11343004 -0.24352151 -0.083243646 0.11913869 -0.07235261 -0.18143769 -0.113164976 0.1269769 -0.12995563 0.3120576 0.12411859 -0.050762415 -0.014685535 0.19288905 -0.07370937 -0.08720347 0.12090388 0.06910567 0.096310735 -0.050628666 0.122298084 0.06571076 -0.04412451 0.06885459 -0.001864251 0.08027979 -0.0378171 -0.009249963 -0.08473055 -0.079512924 0.029736722 -0.088364474 0.04269214 0.023804484 -0.13556193 0.21425071 -0.22611818 -0.09763578 0.31043795 0.05143723 0.03578093 0.09661551 -0.10875437 0.035696294 0.006451092 0.018491933 0.030249715 0.051187944 -0.072841875 0.19596848 0.027974786 -0.08724746 0.1471672 -0.0810384 -0.022631126 0.09762602 -0.027574427 0.20670873 -0.089887016 -0.074468926 0.17842035 0.026443208 0.23253874 0.16884692 -0.0733128 0.006115316 0.1704939 -0.16123453 -0.016720941 -0.13594322 0.055614296 0.14979497 -0.04491796
99 0.18069057 -0.08634411 0.19999981 -0.08898185 0.36798012 0.12836036 -0.026103599 -0.0875414 -0.13289583 -0.40906268 -0.05258288 -0.16582516 -0.18049079 0.18450639 0.059813786 -0.077584855 -0.08760042 0.026401278 0.013535819 0.060680665 -0.063160464 -0.13414387 0.03743148 -0.065053836 0.016162941 -0.021288475 -0.16067949 0.15709576 0.02048454 -0.027573898 0.19569157 0.2154719 -0.108706206 -0.16293122 -0.31638214 -0.2594489 -0.04023773 0.14445287 -0.03363249 -0.040971424 0.37724826 -0.11202044 -0.25639358 -0.24055853 0.03054704 -0.112681724 0.38629442 -0.044260707 -0.12574425 -0.009806788 0.10986837 -0.1853448 -0.17302544 -0.04628916 -0.04551494 0.0409919 0.08802798 -0.085177846 0.10859663 -0.058745123 -0.20551515 -0.2342568 0.15097472 -0.05049349 0.04042691 -0.02777256 -0.19999975 -0.014332815 -0.049470805 -0.12113248 -0.20888658 0.12354526 0.14642222 0.06798692 0.0110680815 0.0668425 0.1705562 0.072571106 0.19471006 -0.10673997 -0.036719114 0.04967721 0.03898024 -0.106778264 0.07048632 -0.01577798 0.07193216 -0.013078728 -0.00522716 -0.050356496 0.08108498 -0.29790384 -0.21385753 -0.11128774 0.22622193 0.0039881202 0.04449389 0.1253795 0.12650138 0.028635258 0.06746657 0.08259194 -0.18843864 -0.05896375 0.2848124 -0.054312795 0.13058914 -0.095777154 -0.039895087 0.01953773 -0.17828508 -0.15705469 -0.10035384 0.18119568 0.090391986 0.23728214 0.06606406 0.021526836 0.2198931 0.06636506 0.018843986 -0.005388396 0.24615546 0.09640257 0.18262345 0.1281779 0.16809238 0.0567132
64 0.10537449 -0.07937892 0.4925897 -0.21376574 0.32647973 0.35931396 -0.090023786 0.3973274 0.0033333509 -0.16145352 -0.0812201 -0.061998315 0.11972716 -0.25334802 0.06960683 0.04378714 0.072097525 -0.06276418 0.18715276 -0.16878736 0.1796938 0.21537799 0.42338067 0.0049964585 -0.08562348 -0.20907827 -0.12393397 0.13220273 0.36313394 -0.14302032 0.043690767 -0.091788456 0.04743276 0.08787744 -0.17304128 -0.15544268 0.0989196 0.03538859 -0.009358779 -0.23192991 0.030579643 -0.051716518 0.07696355 -0.2713398 0.0007439513 -0.059094094 0.047038965 0.12251951 0.116327725 -0.076672554 0.15511085 -0.14049917 -0.033678774 0.044405416 -0.027161548 0.12734087 0.0037138448 0.0013209841 -0.030588634 -0.008802506 -0.19055703 -0.06133559 0.042907674 -0.28971466 0.09598587 0.051003285 0.11545685 -0.0916249 0.1693122 0.10436252 0.045936637 0.14551508 0.009669658 0.010516728 0.06064915 0.08586618 0.11354331 -0.2920784 0.032756235 -0.12719694 0.1362536 0.040541112 -0.02493069 -0.108998686 -0.020870015 -0.31109026 -0.15000515 0.14942963 0.088262364 -0.1835088 0.1798613 -0.17508176 -0.056716707 0.053799532 0.14328559 0.06589147 0.03267919 0.024571048 0.25078237 0.08953022 0.11292314 -0.13975972 -0.1887409 -0.20411673 0.20109694 -0.16256669 -0.04284074 0.04385673 -0.042765487 0.0023755464 -0.050516833 -0.18961923 0.14233404 -0.136141 -0.16030595 0.24471126 -0.13652292 0.094788514 0.1379696 -0.14487228 0.20278138 -0.05310196 0.103652656 0.32082886 0.025342675 -0.17512421 0.1631056 -0.04253332
67 0.0060246005 -0.038524177 0.32496992 -0.19945791 0.17567258 0.35660315 -0.01451138 0.40835574 -0.15282251 -0.27636105 -0.03555427 0.0040257573 0.10100819 -0.15658972 0.008727992 0.06918594 0.05904057 0.03961223 0.1650693 -0.1433948 0.067573436 0.20775959 0.29278785 0.096420445 -0.050250784 -0.17594756 0.024791103 0.246154 0.34281772 0.029304536 0.07286394 -0.10702319 0.036867928 -0.065844394 -0.16915876 0.03026986 0.10941326 0.08252543 0.12916544 -0.18604496 0.12392982 -0.119572386 0.00022803934 -0.16264494 -0.08102203 -0.03489221 0.0831348 0.11490839 0.08550146 0.0010769013 0.15312538 -0.183944 -0.013058773 0.031921953 -0.11305495 0.053137388 -0.0697523 -0.12491448 0.062052567 0.04189817 -0.16444421 -0.16306818 0.10164739 -0.28616443 0.060467478 0.017215101 0.07917638 -0.092755206 0.18202099 0.111922115 -0.06715342 0.2497578 -0.03335352 0.067318484 0.24463908 0.07655072 0.008297536 -0.26285127 0.15416303 -0.06244004 0.103463516 0.09195715 0.056954637 -0.054789558 -0.058428265 -0.20601252 0.06080256 0.09023741 0.11383363 -0.14504533 0.25127462 -0.14210995 -0.14761262 0.017755883 0.13941105 0.17430657 -0.12947801 -0.049986366 0.15681188 0.0747121 0.029513601 -0.10642081 0.04701935 -0.18177551 0.097077474 -0.035538625 -0.06663531 0.045066137 -0.10719756 0.016429663 -0.13603698 -0.2040771 0.16265927 -0.13163984 0.041146033 0.1695225 -0.05229277 -0.16354524 0.124168955 -0.09495713 0.05214387 -0.018941682 0.17233482 0.20176928 0.20223518 -0.06489247 0.20642443 -0.15613028
45 -0.050173484 0.09818995 0.28589025 -0.103223234 0.038438328 0.2543001 -0.032153364 0.32869428 -0.018785207 -0.13444768 0.057763584 0.12224189 0.015578266 -0.09627999 0.08796847 -0.0039462447 0.123521864 -0.06209098 0.071884945 -0.06607284 -0.03709073 0.21785642 0.18295307 0.029906878 -0.08074584 -0.120632544 -0.13026688 0.28932416 0.38333026 -0.058068924 0.034409415 -0.11350516 0.039947953 -0.10570865 -0.3289854 0.007674284 0.08917112 0.12483611 0.045380645 -0.2907437 0.23941423 -0.16922042 -0.112778306 -0.1256506 -0.11217174 -0.10555516 0.17901222 0.07252637 0.20478025 -0.03849319 0.23982598 -0.16668434 -0.05912083 0.14982933 -0.087687105 0.2522449 -0.00923203 -0.16765864 -0.0446505 -0.10242984 -0.04206293 -0.1463112 0.057045083 -0.26569492 0.14603513 -0.013178696 0.10535734 0.021313336 0.09483236 0.18471475 -0.046023782 0.16371424 -0.060459632 0.07367036 0.19295177 0.027580127 0.09615057 -0.30080235 0.040553987 -0.07708258 0.0727483 0.06546563 0.07053343 -0.07450495 -0.03538939 -0.30797422 -0.24549408 0.0490391 0.05248983 -0.15486887 0.19336627 0.0079647275 -0.04690309 -0.013236334 0.14209174 0.037802592 -0.01857344 0.050858386 0.11732627 0.04239207 0.038474973 -0.08483694 -0.008480662 -0.0699647 0.0053474847 -0.06160034 -0.0032331385 -0.12045218 -0.1889041 -0.07190859 -0.17169309 -0.17954582 0.06594059 -0.15529098 -0.19979231 0.07675974 -0.077380195 0.04113199 0.2117218 -0.05468595 0.0021831547 -0.12873787 0.007283098 0.21504048 0.14618553 0.21661463 0.18873179 -0.019504864
263 0.052321527 -0.021478763 0.3827365 -0.23848368 0.089704774 0.4028586 -0.04552459 0.36645892 -0.11388958 -0.29015997 -0.05370028 -0.0082653565 0.02350796 -0.1364136 -0.027833914 0.0930116 0.010343399 0.049406674 0.0631046 -0.16746889 0.035523057 0.19261146 0.2951767 0.07983483 -0.009695163 -0.16799095 0.017054103 0.25074494 0.31916726 0.013262932 0.036062013 -0.040502314 0.11940333 -0.0903892 -0.118442126 -0.030344134 0.066985175 0.06819099 0.13192357 -0.14911197 0.0828627 -0.16094483 -0.014535548 -0.16271281 -0.07865639 -0.04638652 0.09137096 0.0540501 0.15994357 -0.06353653 0.106155105 -0.20229636 0.03980685 0.11024002 -0.079800926 0.026049394 -0.04783217 -0.118451096 0.093384065 0.020727351 -0.2787757 -0.12795232 0.10918657 -0.21715727 0.07417757 -0.005894776 0.06931067 -0.03318979 0.16550885 0.09419893 -0.14484446 0.23802555 -0.037879363 0.15216063 0.20007543 0.10972056 -0.042824123 -0.12631679 0.15939023 -0.0718738 0.17153354 0.009341874 0.012313102 -0.018230293 -0.103419214 -0.178137 0.059687026 0.1778013 0.09225393 -0.116220124 0.24060802 -0.16461308 -0.11817017 0.00066095206 0.025348695 0.20149861 -0.11456963 -0.044561323 0.12675436 0.07699433 0.04217761 -0.029658666 -0.024682762 -0.21514761 0.08625415 -0.035634663 -0.08457852 0.08313765 -0.1333176 0.00013710273 -0.09006812 -0.12905008 0.25212747 -0.11100443 0.07835162 0.18042146 -0.027155893 -0.11270488 0.10782804 -0.10706663 0.11210023 -0.045582384 0.11622487 0.23099399 0.13544546 -0.027996257 0.22393428 -0.1239613
124 -0.03461996 -0.10299287 0.24085978 -0.16232915 0.3190622 -0.025910776 0.044155218 -0.0115380855 -0.22658056 -0.26469457 -0.031215386 -0.11771884 0.0464651 0.109503336 -0.010304073 -0.05622002 0.0067070834 0.1150484 0.26251063 0.084448166 -0.04532772 0.023009954 -0.11045718 -0.02299703 -0.07821273 0.08779923 0.050978526 0.14474018 0.00555696 0.08837901 0.26775342 -0.008053653 -0.23635104 -0.12484186 -0.21691932 -0.017633572 -0.0036408107 0.18547061 -0.018820046 -0.020374354 0.3237648 0.07901178 -0.1383972 -0.10513229 0.021453412 -0.017469894 0.11609655 0.14002946 -0.19291312 0.09159257 0.15866959 -0.07765614 -0.16720934 -0.21857506 -0.06501757 0.02304447 -0.087055154 -0.08350341 0.102282956 -0.03820726 0.03370475 -0.29755706 0.09123051 -0.18649833 0.115680106 0.07060907 -0.21606462 -0.13139494 0.07420317 -0.16396134 -0.11321405 0.16813527 0.20383318 -0.034757044 0.07629723 -0.037310183 0.28388286 -0.088848114 0.20757437 0.082744464 -0.16055973 0.12820634 0.16498742 -0.049514417 0.078737505 0.11177801 0.17502615 -0.19024475 0.07937085 -0.052023932 0.1636937 -0.29338142 -0.24659073 0.090740144 0.42570615 -0.049487427 0.059468273 -0.04402895 0.09913397 -0.046024278 0.061656922 -0.041198455 0.123855785 -0.007216809 0.4103948 0.06956968 0.07404487 0.015617321 0.016257562 -0.0043300395 -0.15348473 -0.21245381 -0.13758826 0.18034565 0.07269451 0.32607484 0.033456232 -0.04773891 0.32971904 0.044452675 -0.15088041 0.22070058 0.23942462 -0.11675239 0.1521781 0.017245475 0.119006515 -0.042948566
294 -0.0056529264 0.030115953 0.16779058 -0.20603053 0.08921641 0.10010625 -0.048189573 0.063718766 -0.087586 -0.24259168 -0.06329307 -0.058940306 -0.08660252 -0.108969964 -0.12941623 0.07607479 0.012866867 0.14499982 0.123391226 0.055690985 -0.15811507 0.29098135 -0.06643983 -0.028539658 -0.094772264 0.10482099 -0.0040801507 0.2576328 0.0022275904 -0.026311826 0.12972918 -0.02619756 0.014181403 0.04626094 -0.070311055 -0.14535825 -0.079214424 0.14833337 -0.033708684 -0.1746286 -0.030558316 0.07263972 -0.18511862 -0.111770585 -0.020190693 -0.07730737 -0.101651475 0.010631406 0.3018973 -0.15582171 0.041698024 -0.06830516 -0.1310296 0.23957494 0.07105267 0.108639605 -0.12482602 -0.12271368 0.097888716 -0.07705092 -0.25987366 -0.07080194 0.17850716 -0.08712046 0.3337122 0.100320265 -0.08301025 0.022136724 0.13750155 -0.07820343 -0.14578158 0.104750164 0.099693 0.11864861 -0.14299382 0.099224694 0.07934518 0.051489715 0.10952479 -0.06979895 0.06456064 -0.08767312 -0.06736736 -0.116717584 -0.057410687 -0.01749283 -0.14035545 0.071860485 0.039257627 -0.13351046 0.2584195 -0.2795434 -0.124968685 0.28018332 0.026049554 0.08753705 0.12871173 0.013366932 0.09778957 0.0003809695 0.035341084 0.10799913 -0.05998473 -0.041377988 0.18640932 0.030165644 -0.036426473 0.13189165 -0.11752158 -0.03415995 0.13773401 0.0046599177 0.16325098 -0.06717612 -0.07842398 0.16356717 0.0662913 0.26863354 0.13097443 -0.051077966 0.11133768 0.16555808 -0.1309473 0.051348936 -0.10963781 0.09748011 0.20193426 -0.021005426
138 0.12494046 -0.04791148 0.14062041 -0.18160655 0.34737 0.047453582 0.010463771 -0.18554462 -0.0880666 -0.3026711 -0.05288494 -0.1894379 -0.30019552 0.10786109 0.013694309 -0.044316247 -0.045335747 0.032762617 -0.047539264 0.019429583 -0.11972601 -0.07408826 -0.03843102 -0.09612379 0.0135157835 0.054800082 -0.15333986 0.08627502 -0.028216189 -0.15316935 0.12708074 0.1778619 -0.12992956 -0.154647 -0.31435364 -0.2706587 -0.06170371 0.1161308 -0.00010392825 -0.041135434 0.2872415 -0.06729527 -0.2148512 -0.32810527 0.022441486 -0.13091287 0.37488744 -0.087562054 -0.11372419 -0.14777432 0.09199466 -0.094815485 -0.14661096 0.008146965 0.0041431556 0.03804556 0.10560553 -0.00787771 0.10066159 -0.10371233 -0.30690345 -0.19432497 0.12088588 0.006675114 0.035255823 -0.0064481692 -0.23665203 0.005398392 -0.020585068 -0.1523108 -0.2686713 0.11980489 0.15659468 0.092711754 -0.12522739 0.0040909355 0.13400453 0.08906506 0.2836035 -0.06515591 -0.007649249 -0.028291017 -0.029691655 -0.03290148 0.090095125 -0.014862596 0.03460781 -0.015955117 0.046123456 -0.082437575 0.08394806 -0.4412524 -0.23756927 -0.063086644 0.22085547 -0.049357254 0.09831672 0.15893136 0.23374319 0.047310684 0.058895368 0.1621304 -0.22135578 -0.05179928 0.33484384 -0.020172385 0.18084943 -0.01639652 -0.022674665 -0.10207732 -0.11266603 -0.12545867 -0.08955644 0.26732096 0.107038595 0.20089228 0.086915426 0.14632116 0.29222274 0.06411231 0.077404134 0.03794578 0.22388712 0.0734849 0.10454116 0.10246759 0.22259422 0.08526204
292 -0.025148543 0.018773492 0.28219193 -0.19381244 0.055591475 0.09343255 -0.07244144 0.0396654 -0.1253307 -0.26485863 -0.06151835 -0.055666797 -0.03080823 0.008172178 -0.1789981 0.060936738 -0.0135368565 0.16006826 0.2100729 0.14917001 -0.13679205 0.31628487 -0.0953047 -0.0046122465 -0.1308579 0.11330147 -0.05835909 0.34275827 -0.004283987 0.098142356 0.19643714 0.056740697 0.01993975 0.048542637 -0.067928456 -0.13767444 -0.11448695 0.19022526 -0.10334448 -0.15134338 -0.024281839 0.099390864 -0.28775543 -0.06998882 0.038996737 -0.04527295 -0.16209711 0.0408694 0.36373454 -0.12311845 -0.0378351 -0.08781195 -0.1218923 0.28311542 0.09049926 0.10307395 -0.22547816 -0.17660122 0.14999868 -0.07082142 -0.23239885 -0.104134195 0.19438486 -0.073887534 0.36159694 0.14446631 -0.10372565 0.054449078 0.15159251 -0.10268105 -0.13792142 0.09989634 0.114555314 0.101439334 -0.055812076 0.1752338 0.10569825 0.11229891 0.051924437 -0.10872112 0.063903354 -0.051319238 -0.0067310976 -0.17059106 -0.120904244 0.07024102 -0.101496145 0.096096665 -0.05188018 -0.14283912 0.2529684 -0.21585812 -0.121119134 0.2960176 0.016724039 0.097409494 0.07579187 -0.05730267 -0.015086726 -0.019413656 -0.001032008 0.06983969 -0.040243104 -0.029621981 0.2020293 0.020028988 -0.08464028 0.13380656 -0.1355028 0.080510356 0.08226908 0.0017620437 0.23486447 -0.09990704 -0.06986927 0.21527629 0.05480435 0.2733895 0.07921243 -0.01592428 -0.021601569 0.16608386 -0.205897 0.0061620474 -0.127138 0.13923888 0.15505695 -0.002051798
44 0.009714403 0.052516766 -0.06495002 -0.19202195 0.16936876 -0.0009602372 0.07817747 -0.08055924 -0.06231617 -0.15745258 -0.0023204098 -0.085168235 -0.30190167 -0.15921418 0.026168792 0.050181456 0.07447234 0.038608447 -0.0705779 -0.022202048 -0.21662676 0.14876603 -0.13920103 -0.09417724 -0.016900182 0.14082952 -0.0040895226 0.08622169 -0.033997502 -0.2826197 0.039704368 -0.073235154 -0.12840731 -0.081849694 -0.2407018 -0.12811823 -0.022442326 0.10312507 0.114238456 -0.16141914 0.15709455 -0.057984527 -0.11507441 -0.2663082 -0.11094914 -0.15001619 0.2569031 -0.072176285 0.042006586 -0.20602405 0.17973028 -0.0045940676 -0.1447906 0.10002969 0.034534182 0.15948562 0.08407245 -0.050682664 0.040623434 -0.14746355 -0.31853783 -0.13363001 0.15793402 -0.09654975 0.15545835 0.041330747 -0.15221769 -0.022324253 0.030425766 -0.10207669 -0.23205675 0.11299491 0.11379483 0.12555796 -0.2480067 -0.1048899 0.13023002 -0.027982233 0.31171036 0.023169572 -0.022549318 -0.090826124 -0.10161202 -0.0042142626 0.08747203 -0.08998507 -0.14401127 -0.11494842 0.14903398 -0.10042301 0.1931939 -0.4917661 -0.24088655 0.12424438 0.21161781 -0.03485264 0.21416022 0.16813809 0.3171264 0.041505814 0.06316623 0.16773362 -0.07639507 0.021892915 0.22309922 0.03539164 0.17179228 0.0316741 -0.078837804 -0.25715375 0.021115 -0.054095242 -0.112423815 0.16681427 0.013344437 0.08355286 0.079501495 0.26469025 0.38528448 0.0074369726 0.20135699 0.10757514 0.11886218 0.037179798 0.01518726 0.1244838 0.2771034 0.032724567
249 0.2397794 -0.14893772 0.33058766 -0.14489408 0.43284133 0.10676925 -0.029646363 -0.1630765 -0.13233724 -0.43053332 -0.11016615 -0.23353867 -0.16747181 0.23367609 0.042787816 -0.11137515 -0.15525609 0.049333557 0.05351407 0.113962956 -0.03008713 -0.15344365 0.044801652 -0.07931969 -0.004499539 -0.01212521 -0.22377871 0.14722337 -0.022684453 0.010912367 0.26005727 0.30578002 -0.10750161 -0.11200994 -0.2906284 -0.3561636 -0.08920548 0.14889012 -0.11345701 0.0022778166 0.31858814 -0.04476646 -0.27898997 -0.27168947 0.110429086 -0.11667011 0.32286292 -0.023361485 -0.11417799 -0.02718527 0.068224825 -0.17025913 -0.17896312 -0.025254931 -0.02025233 -0.022354241 0.05707163 -0.05401264 0.12388778 -0.038517855 -0.25019574 -0.20924817 0.15760057 0.0053431247 0.07962422 0.008795233 -0.2690774 0.0003594553 -0.032452874 -0.18570226 -0.20327257 0.09828035 0.20365362 0.036825456 -0.019198693 0.10138331 0.17577502 0.17888711 0.18031108 -0.15399492 -0.05488761 0.02234972 0.020352773 -0.13788731 0.05207562 0.033808954 0.11566141 0.041213233 -0.046849173 -0.075481616 0.06440458 -0.33380207 -0.22411156 -0.100429945 0.22063144 0.0041679903 0.037718132 0.11916345 0.14164622 0.02241162 0.09001603 0.097536094 -0.28718653 -0.087792456 0.3941152 -0.063712396 0.12005011 -0.01556221 -0.0024775388 0.08807612 -0.16804774 -0.15180534 -0.040314578 0.2467134 0.11792797 0.32137167 0.081072174 0.08775287 0.18230526 0.09459827 0.012051829 0.06550488 0.23383974 0.10319323 0.13532576 0.047892097 0.18301585 0.08139088
22 -0.014363553 0.026446708 0.331783 -0.21069185 0.052630614 0.4090617 -0.033838864 0.41459844 -0.13998757 -0.2528787 -0.033851545 0.028851548 0.05983729 -0.14567111 -0.010033475 0.11067855 0.050346244 0.05632837 0.09165478 -0.23631664 0.060981162 0.17500885 0.27174142 0.09655451 -0.0015529059 -0.16675624 0.11970273 0.24936086 0.3758092 0.0019264502 0.02774905 -0.09423441 0.09261013 -0.1612652 -0.14544773 0.09490319 0.13271765 0.05591207 0.20662671 -0.13948433 0.1760231 -0.1975358 0.01323911 -0.12232114 -0.11035331 -0.017712777 0.16704771 0.07041164 0.08951746 0.0034242924 0.16074133 -0.24702126 0.048560705 -0.013208097 -0.11989397 0.07322998 -0.0036589776 -0.13792759 0.08583236 -0.0114852525 -0.21148671 -0.24266493 0.09511507 -0.30709428 0.05040225 -0.07392736 0.04646143 -0.069043845 0.17421794 0.108645946 -0.15853965 0.29525188 -0.04543541 0.18353045 0.27616042 0.055902414 0.010776869 -0.21957897 0.2116707 0.026098436 0.14515078 0.047354985 0.06902508 0.050613195 -0.075261526 -0.1907316 0.09883003 0.106314704 0.15406139 -0.07036708 0.23954953 -0.15625845 -0.10620618 -0.019869445 0.1157944 0.16803801 -0.117316894 -0.07474619 0.11338185 0.06289863 0.052086905 -0.065643 0.11335634 -0.19093218 0.07036239 -0.006371653 -0.10221407 -0.003154118 -0.1415142 -0.06161848 -0.15215722 -0.15257964 0.17294085 -0.12143155 0.084826805 0.17865337 -0.06570389 -0.2467117 0.17333463 -0.14144745 0.061227437 -0.050127845 0.20038176 0.17947696 0.21863769 0.028365722 0.22845416 -0.16106354
174 -0.017740808 0.035254274 -0.022110384 -0.16928236 0.19824116 -0.07233831 0.08425481 -0.16162711 -0.08845696 -0.16420114 0.0049223173 -0.11042407 -0.30181473 -0.07121097 0.032382775 0.028347023 0.09299102 0.04708085 -0.07459941 0.010235157 -0.20433977 0.09692632 -0.16515444 -0.07804485 -0.045089398 0.1623417 -0.062367998 0.09126773 -0.057369623 -0.25825027 0.064262904 -0.028808016 -0.18640985 -0.1334608 -0.2893958 -0.13356876 -0.044152077 0.11664803 0.117499635 -0.12201036 0.21351892 -0.07202542 -0.1568932 -0.29086396 -0.081870556 -0.16559266 0.2998723 -0.05480548 -0.030007578 -0.2077375 0.11235545 0.01548947 -0.1658648 0.11465941 -0.01435677 0.13485269 0.03631612 -0.038445543 0.103817865 -0.12162461 -0.3253206 -0.18958509 0.14896034 -0.07454796 0.08846432 0.09322764 -0.18577583 -0.03794152 0.033053163 -0.1071082 -0.22534297 0.12041879 0.12220312 0.0881675 -0.15898617 -0.0721416 0.099539325 -0.0233537 0.3177597 -0.021982308 -0.024541968 -0.0074260444 -0.060307775 -0.01877943 0.0815471 -0.03352521 -0.067193545 -0.12442375 0.08918487 -0.124995016 0.14444757 -0.48590326 -0.3088855 0.06630414 0.23441517 -0.061674975 0.098639466 0.16087745 0.3115227 0.059095327 0.0010763928 0.1843483 -0.10323849 0.009345081 0.2671209 0.053981725 0.22579302 0.0386419 -0.055391204 -0.20740569 -0.04416777 -0.12857468 -0.12502097 0.222663 0.081317395 0.084500775 0.09011904 0.23645832 0.36860543 0.05596973 0.071384855 0.09754905 0.1389629 0.0071964567 0.04713241 0.11904955 0.24387652 0.036748983
137 -0.14633124 0.2072529 0.26053014 -0.13624473 -0.11707827 0.03183497 -0.12385765 0.036997307 0.11292981 0.11034967 -0.015912639 0.023446744 -0.13101068 0.05540204 -0.27423 0.025915477 0.16012259 -0.004706576 0.20213734 -0.11519349 -0.13141774 0.30579525 -0.07710973 -0.10648732 -0.066235185 0.15209475 -0.07025584 0.1844983 0.28149056 0.009228308 0.02519118 0.019714244 0.058776576 -0.06384425 -0.35615635 0.02632963 -0.006048168 0.21224038 -0.10080428 -0.14427397 0.15505761 0.13024732 -0.2750069 -0.16911648 0.0640392 0.06564923 0.06110762 -0.010881553 0.28933275 -0.2020466 0.084444456 -0.15924108 0.094091654 0.11740033 0.18499456 0.28919595 -0.17407377 -0.11909979 0.015881505 -0.26224294 -0.09182093 -0.24424057 -0.0019568286 -0.059424665 0.3004729 -0.10688211 -0.13977559 0.19199865 0.16613555 -0.077875026 -0.210096 0.19623819 0.05149927 0.22926855 -0.0076716994 0.024585249 0.23218693 -0.033280276 0.120305486 0.15964922 0.1091297 -0.10390407 0.10255042 0.13055702 -0.053921614 -0.05344186 -0.20990855 0.11077738 0.07981655 -0.08781719 0.10782855 -0.1038912 0.10830362 0.20389308 0.1501069 -0.12413408 0.25720334 -0.12373595 -0.07633213 -0.04152419 0.082123995 0.025466764 0.022833271 -0.036689807 0.20498809 -0.010556593 -0.1605399 -0.11418665 -0.083974294 -0.23256037 -0.027511781 0.011913194 0.21786495 -0.06762309 -0.26931438 0.16204126 -0.0340794 0.3407782 0.3467346 -0.15982361 -0.09097661 -0.0039867847 -0.22060503 -0.030386433 -0.11066689 0.40564665 0.20476317 0.14931452
69 0.18110277 -0.13431111 0.35138 -0.100952595 0.3969291 0.18700813 -0.03001705 0.012397862 -0.15016304 -0.44710082 -0.06515908 -0.14618935 -0.042978175 0.2154292 0.07704831 -0.117015734 -0.11147198 0.03944291 0.11083694 0.107848205 0.036868073 -0.11899038 0.137391 0.004537383 -0.025414035 -0.09444369 -0.19244517 0.2136562 0.10096189 0.093828514 0.24432845 0.23090093 -0.0734775 -0.12857153 -0.27736264 -0.2312178 -0.034370735 0.13677119 -0.092369474 -0.042853676 0.32529798 -0.08386271 -0.20483665 -0.18187925 0.060281724 -0.07806104 0.25471777 0.04823036 -0.10377337 0.07060184 0.11201475 -0.2133784 -0.16436927 -0.04876724 -0.079429775 -0.010554593 0.0093098115 -0.10497901 0.10904848 -0.002786096 -0.11573955 -0.20574693 0.10920907 -0.072671786 0.045366433 0.012584657 -0.13963085 -0.023588445 0.00070302095 -0.076852016 -0.12918568 0.13084334 0.13640572 0.01612392 0.13806722 0.1361106 0.15187483 0.04238118 0.09663633 -0.17083728 -0.04109807 0.11125214 0.08929511 -0.15400079 0.038271222 -0.026633395 0.12616119 0.032663785 -0.060936227 -0.07196428 0.0917719 -0.16662514 -0.18101855 -0.13102835 0.20808905 0.04571384 -0.056858726 0.061064452 0.07280726 0.016178528 0.06387175 -0.015325162 -0.16278258 -0.103129745 0.27817583 -0.05826125 0.064300716 -0.05778996 -0.03378606 0.14973572 -0.20413332 -0.18909004 -0.012460159 0.121989176 0.075765885 0.26987964 0.03802694 -0.056621514 0.10594802 0.08072335 -0.048726186 0.010623891 0.22978258 0.13597581 0.20202805 0.030000933 0.12973121 0.023288365
105 0.25871152 -0.12198896 0.2765689 -0.122119665 0.40828094 0.17381947 -0.040434934 -0.12968385 -0.112530395 -0.4280539 -0.10121931 -0.23526819 -0.23062009 0.19149156 0.02932618 -0.07624627 -0.12892023 0.026767027 -0.007048679 -0.000584647 -0.003386264 -0.16834557 0.11004615 -0.0629904 0.048216894 -0.049431074 -0.1796071 0.12184468 0.038494438 -0.0328541 0.19986138 0.3124029 -0.05806214 -0.16727634 -0.30587506 -0.3193666 -0.04963346 0.11463217 -0.021061333 0.014384764 0.33686477 -0.10955288 -0.22638296 -0.317454 0.07593747 -0.09532139 0.42576396 -0.07623301 -0.15486068 -0.05895567 0.08500553 -0.22333203 -0.11414291 -0.061754555 -0.024479326 -0.03529113 0.09364219 -0.04141933 0.14034611 -0.059583645 -0.33890918 -0.24621227 0.15317263 0.004254526 0.0015582187 -0.053148247 -0.26333517 -0.0008995037 -0.019278605 -0.16277374 -0.27076992 0.14391513 0.16256991 0.12835005 0.0056261327 0.09713212 0.13188748 0.16564703 0.25567266 -0.12184538 0.01482771 0.014329003 0.008397601 -0.048732422 0.06546088 0.0011590723 0.17253992 0.066905715 0.007206568 -0.0530218 0.049087726 -0.3757489 -0.22039808 -0.16500503 0.20844176 0.030701777 0.019601017 0.10316237 0.1564597 0.046667308 0.086807616 0.1044438 -0.26717576 -0.14338791 0.35593402 -0.06627108 0.10625051 -0.05402049 -0.010565248 0.030916683 -0.18040518 -0.1524127 -0.007994284 0.25505564 0.1776822 0.281215 0.07383118 0.0124346055 0.19054188 0.049060486 0.049454667 -0.006572649 0.2997754 0.14756845 0.17453814 0.045311693 0.20015301 0.068722315
79 -0.027698504 -0.007929873 0.02164263 -0.18302178 0.25324246 -0.094893865 0.09604215 -0.15131973 -0.107845806 -0.17624922 0.0141146295 -0.110280454 -0.23551346 -0.059390165 0.07132034 -0.007329176 0.08785566 0.035358023 -0.014209378 0.060575567 -0.17978607 0.085901275 -0.15100726 -0.08088011 -0.06791446 0.14264509 -0.06472417 0.0806937 -0.062455945 -0.2292013 0.103341416 -0.06161981 -0.2392168 -0.10260458 -0.27296275 -0.118158795 -0.023168158 0.13153903 0.08373196 -0.15270412 0.24374126 -0.043126542 -0.12982863 -0.2672812 -0.083857 -0.17880386 0.28810093 -0.00075597805 -0.09080476 -0.14867489 0.14438927 0.028990725 -0.21113463 0.047508255 -0.03881069 0.12212012 0.035144843 -0.028778985 0.07285076 -0.08443529 -0.23656882 -0.168569 0.15136555 -0.10515418 0.08828685 0.12165821 -0.15820998 -0.09275053 0.024140254 -0.096887656 -0.16650845 0.10976162 0.14037502 0.0057745846 -0.14341384 -0.100208566 0.13815132 -0.0986995 0.29369956 -0.025873508 -0.09087708 0.03623713 -0.028671075 -0.06598597 0.09912297 -0.044467203 -0.060357403 -0.18226168 0.10848913 -0.13501884 0.16897847 -0.47076175 -0.32564044 0.07633881 0.32948118 -0.0759703 0.105350904 0.17797427 0.32830596 0.03511764 0.0034102253 0.13064605 -0.063954055 0.024197321 0.31258133 0.04932036 0.251089 0.04796921 -0.033046804 -0.18933824 -0.06939027 -0.17768076 -0.19267839 0.24440114 0.060872063 0.11633188 0.08895121 0.20066924 0.38295767 0.07809109 0.05487936 0.12968151 0.18993187 -0.011614569 0.083742544 0.08027107 0.2415762 0.013918979
73 0.056084555 0.024217319 -0.037096217 -0.16925631 0.23418626 -0.057745364 0.0649142 -0.16667543 -0.058618005 -0.16698131 -0.018589012 -0.12173616 -0.33263293 -0.090730555 0.038233973 0.017926967 0.056559995 0.028392127 -0.095337935 -0.00382476 -0.20237286 0.075123206 -0.14131433 -0.12322966 -0.0059188963 0.14746894 -0.0774985 0.07081264 -0.053063463 -0.2784218 0.07522143 0.0010033129 -0.17177765 -0.11011876 -0.31763372 -0.1920596 -0.044186812 0.112166494 0.08788628 -0.125845 0.22110666 -0.06835895 -0.15819491 -0.31349546 -0.08303782 -0.17067318 0.34213933 -0.07709641 -0.045421448 -0.20606671 0.15732583 -0.023062866 -0.1749963 0.06809141 0.030570572 0.130739 0.11249298 -0.02918998 0.048439268 -0.14841114 -0.32543513 -0.16373424 0.15409374 -0.051342543 0.113748856 0.029123439 -0.20865549 -0.019242616 0.007468017 -0.12263538 -0.2536668 0.11796158 0.14341399 0.12127262 -0.23323795 -0.10333961 0.15155758 -0.0019105906 0.32595426 -0.0024161965 -0.038398504 -0.056715447 -0.08861683 -0.0060702474 0.1209853 -0.07609857 -0.104830146 -0.115750626 0.1275602 -0.0974673 0.14342305 -0.5142489 -0.27630228 0.0524949 0.25191444 -0.062347513 0.20128362 0.20070685 0.33002034 0.053680703 0.046393905 0.19253425 -0.15642145 0.019570276 0.2841656 0.01679236 0.23342192 0.0017348058 -0.045370467 -0.23123339 -0.021022579 -0.095838904 -0.15508395 0.25089273 0.04996623 0.114033096 0.0936161 0.26362947 0.3966381 0.04674845 0.15871198 0.08783115 0.17156622 0.042883854 0.051834244 0.13495791 0.2765914 0.06647575
145 -0.10016412 -0.099231936 0.32816294 -0.18559891 0.2878644 0.062275782 -0.014777265 0.09721391 -0.1940027 -0.22553703 -0.04267471 -0.09939809 0.108656056 0.0575109 -0.08094291 -0.013440523 0.03872424 0.12056924 0.33284128 -0.009864563 0.04263665 0.083799794 -0.020361442 -0.009205747 -0.082752764 0.041194566 0.08257441 0.12564877 0.087550156 0.11028982 0.22939402 -0.04570934 -0.17600733 -0.07397796 -0.154134 0.023345368 0.02442357 0.16458505 0.003316351 -0.017120894 0.23221976 0.08892863 -0.088023424 -0.08868601 0.05338878 0.030985078 0.037535384 0.16007434 -0.13210249 0.048367508 0.103022546 -0.102159806 -0.09736433 -0.20532075 -0.04636704 0.029687257 -0.13456413 -0.059709474 0.11375822 -0.012863849 0.039243937 -0.27268967 0.057911593 -0.21304476 0.110746585 0.07120563 -0.14419623 -0.11559117 0.124738246 -0.13746792 -0.056763202 0.17227203 0.14675225 -0.01872107 0.12345556 0.007928553 0.24037011 -0.10326603 0.14580561 0.08761204 -0.076787174 0.118961245 0.17569198 -0.015783181 0.036084063 0.12054491 0.1829938 -0.11515467 0.0704676 -0.06133409 0.14255598 -0.21830483 -0.1431279 0.11221124 0.3381706 -0.046802405 0.040049266 -0.1140094 0.043857895 -0.032973997 0.04720175 -0.076481454 0.16057523 -0.07239564 0.36363748 0.048804726 -0.0008981922 0.054090597 0.02000689 0.030844469 -0.113717675 -0.17274617 -0.027414463 0.08377066 0.047285665 0.308782 0.00048399204 -0.060854882 0.26018357 -0.016804745 -0.14969847 0.20162037 0.15839848 -0.08589374 0.106917985 -0.030776713 0.06272049 -0.058945067
75 0.010728153 0.038996805 0.17924081 -0.12240766 0.15624718 0.25434798 0.021392822 0.29612187 -0.10517766 -0.27295265 0.031810105 0.07153055 -0.016473599 -0.13486177 0.15625413 0.010732307 0.06567215 -0.021330051 0.00871639 -0.010234714 -0.054002848 0.18729746 0.16797435 0.05481842 -0.05431219 -0.12298843 -0.095227435 0.28922704 0.265761 -0.110859044 0.06694498 -0.12231904 -0.023940116 -0.10110181 -0.2716707 -0.049213707 0.08293609 0.08643892 0.10331537 -0.26067606 0.22383583 -0.2098929 -0.08344592 -0.15612723 -0.16174029 -0.15729098 0.20365815 0.08383898 0.13676271 -0.011761462 0.2351655 -0.13131076 -0.16035777 0.15494037 -0.138903 0.1705225 0.041480117 -0.16624656 -0.0036951143 -0.024972027 -0.1441818 -0.11169898 0.12244233 -0.27738976 0.094761506 0.034840163 0.093317434 -0.07114229 0.069562025 0.17379946 -0.06114601 0.15646374 -0.035139397 0.025983518 0.14577974 0.022589615 0.03052314 -0.29876184 0.09497656 -0.15776587 0.030274985 0.095722154 0.0018121902 -0.14512517 -0.004232259 -0.31427795 -0.19114912 -0.010161194 0.07231267 -0.1652701 0.25082833 -0.1168761 -0.20067133 -0.026121689 0.13709803 0.11211445 -0.06582764 0.125899 0.2237318 0.08380408 0.024934988 -0.037638985 -0.031669874 -0.0512355 0.026656337 -0.05985683 0.07802553 -0.056231037 -0.18580106 -0.040144615 -0.1555808 -0.21381801 -0.003911088 -0.115169816 -0.07619674 0.071162164 -0.011664453 -0.040187974 0.17787361 -0.008960439 0.08526332 -0.08341973 0.13757637 0.241707 0.2150258 0.11125288 0.22548485 -0.07381556
40 0.20316362 -0.087478995 0.40070662 -0.15627493 0.2935973 0.24983677 -0.068044476 -0.054274607 -0.06956964 -0.37514767 -0.10140946 -0.18838021 -0.15807182 0.24844131 -0.043574594 -0.04531639 -0.13004185 0.028175594 0.016389567 -0.013505108 0.019882383 -0.123574615 0.15346964 -0.033548314 0.03027548 -0.08585365 -0.20050004 0.15503556 0.109293304 0.04498815 0.14813454 0.31779286 0.022544349 -0.18133385 -0.27545065 -0.27268094 -0.053969033 0.12446002 -0.03010172 0.039588585 0.28229582 -0.11646367 -0.261716 -0.28231317 0.113231435 -0.06343095 0.33798 -0.07036651 -0.060951233 -0.08008106 -0.028601276 -0.24846888 -0.018520512 0.028263655 -0.013924991 -0.040164813 0.023988876 -0.051589422 0.18523881 -0.03446532 -0.32621148 -0.21288748 0.11455062 0.036399335 -0.023268629 -0.056584135 -0.19592457 0.051743183 0.032411344 -0.13650747 -0.26240656 0.1667249 0.110861145 0.15186813 0.10278193 0.19046032 0.05126399 0.176113 0.19298568 -0.14173211 0.095817894 0.011095677 0.03988619 -0.037605193 -0.021928776 0.022426432 0.18160887 0.15214106 -0.047618948 -0.072675 0.03234796 -0.280733 -0.15328214 -0.16241044 0.09108556 0.04842882 -0.064766146 0.028876789 0.061851222 0.049902763 0.058242813 0.07784588 -0.24769208 -0.19232674 0.28762713 -0.06766104 0.022517178 -0.02253058 -0.041976143 0.069456615 -0.1996783 -0.119653165 0.13634503 0.14810768 0.17536499 0.25629684 0.06447052 -0.009111315 0.12825663 0.027874922 -0.017729506 -0.056939274 0.19867188 0.16120344 0.13457285 0.07926594 0.19553377 0.051126823
228 -0.046585828 0.06686878 0.28101647 -0.22088456 -0.0077901683 0.41464916 -0.041432235 0.47019553 -0.10424605 -0.20558262 -0.011877547 0.07111538 0.017950904 -0.24534205 -0.016225299 0.13086244 0.110624224 0.033288773 0.070630156 -0.25024512 0.0018194322 0.30332747 0.2931203 0.10149968 -0.021428732 -0.15754062 0.08246898 0.2867885 0.4393558 -0.0476596 -0.015820052 -0.17606778 0.12159527 -0.13378079 -0.18206339 0.11795023 0.13126493 0.08532625 0.22313695 -0.22745696 0.13085283 -0.19807178 0.006667686 -0.1584143 -0.16574448 -0.037761446 0.13087125 0.062657766 0.19876851 -0.07352572 0.18021707 -0.21510519 0.04957906 0.104245104 -0.097324215 0.14782572 -0.045973375 -0.16653298 0.06627338 -0.044869374 -0.25133374 -0.19224069 0.09819676 -0.3192556 0.093741044 -0.04689972 0.1280589 -0.04128973 0.2047807 0.15328613 -0.14979555 0.29314846 -0.09540086 0.20471328 0.2452153 0.059790805 -0.036288172 -0.27583772 0.20204432 -0.0035635782 0.18312588 0.030855762 0.031109355 0.04170492 -0.09448169 -0.26795104 -0.01592936 0.125141 0.17113338 -0.13486546 0.28048956 -0.14647366 -0.094186045 0.018958313 0.072970204 0.1812761 -0.1076671 -0.05422172 0.15694627 0.08465104 0.032345816 -0.051031172 0.10553358 -0.18051738 0.010972549 -0.027852757 -0.09748015 0.013555842 -0.18139718 -0.12046657 -0.113886245 -0.15114415 0.22397074 -0.17086919 0.0045338627 0.100297935 -0.049280904 -0.16263884 0.19978724 -0.15368742 0.11558663 -0.088403895 0.113460846 0.22665402 0.18296468 0.060918737 0.27550423 -0.14706749
302 -0.051968914 0.038609542 0.25798047 -0.21173663 0.06536797 0.060962852 -0.10891946 0.011038327 -0.06907354 -0.19711095 -0.073136434 -0.07484566 -0.06935193 0.001953373 -0.2716517 0.06848632 0.01759055 0.18853328 0.2223676 0.06989943 -0.15108503 0.33573413 -0.10958561 -0.04012171 -0.122229494 0.15370397 -0.022110278 0.27396566 0.009635587 0.0656659 0.1676793 0.052617878 0.029793166 0.043348234 -0.102471374 -0.13410553 -0.12295982 0.2035108 -0.106836885 -0.12937856 -0.0319056 0.17124885 -0.26066923 -0.112725385 0.07812686 -0.012538726 -0.15341173 0.026339069 0.36330682 -0.19010009 -0.04160503 -0.06977535 -0.07605377 0.22514643 0.14862885 0.11087596 -0.25591964 -0.13418207 0.14712958 -0.10098266 -0.24310605 -0.13786551 0.16306709 -0.06266449 0.39181358 0.09932784 -0.14761314 0.06622928 0.17837122 -0.13152632 -0.16851936 0.13068666 0.13851994 0.13818127 -0.10240622 0.15565847 0.13447362 0.12243805 0.099536985 -0.03319758 0.086514495 -0.094160706 -0.023140166 -0.08117092 -0.11123627 0.10242464 -0.08689562 0.119251415 0.0012000375 -0.14262162 0.23403546 -0.2509203 -0.07469759 0.33821878 0.034584943 0.04089095 0.14483893 -0.09542374 -0.022332642 -0.017917171 0.032923095 0.08924355 -0.034994263 -0.052390657 0.2661174 0.03784988 -0.09906019 0.14642432 -0.10472682 0.015578823 0.13270201 0.029323138 0.24968751 -0.059461094 -0.09589743 0.21920532 0.053166572 0.3338811 0.15535133 -0.070593275 -0.0033437347 0.19363219 -0.21719582 -0.032081053 -0.1773945 0.14026752 0.16846561 0.016148599
142 0.036577087 -0.05235447 0.33416367 -0.22762538 0.18349491 0.43372303 -0.07454057 0.44359642 -0.082004614 -0.25527617 -0.067187265 -0.048692062 0.03364484 -0.26513934 -0.06881895 0.12829667 0.07682165 0.041076876 0.12396277 -0.28782833 0.14110823 0.2868782 0.38721526 0.07720198 -0.027534567 -0.20747837 0.021952756 0.20178711 0.37939942 -0.06576421 0.020931616 -0.08752946 0.11154138 -0.04502653 -0.108110525 -0.015392144 0.08969902 0.0300335 0.16599302 -0.18188123 0.014383183 -0.13329542 0.09916743 -0.24663548 -0.091270626 -0.030593863 0.063036434 0.104819365 0.14867221 -0.09812043 0.09595692 -0.1681322 0.0786328 0.081081994 -0.06951353 0.03491414 -0.060319774 -0.081473924 0.08617077 0.040371478 -0.33574373 -0.13401842 0.094740376 -0.27468145 0.04762783 0.031587508 0.098357 -0.09427605 0.23988637 0.14211789 -0.1089648 0.2726317 -0.071489826 0.15835483 0.2255341 0.086744115 -0.06919761 -0.2294668 0.2067951 -0.061009213 0.21948367 0.012332315 -0.016700491 0.039582755 -0.080378495 -0.20473026 0.077948034 0.22732624 0.13795592 -0.16095923 0.24674101 -0.21635927 -0.08522731 0.011481816 0.057334125 0.21003343 -0.14012739 -0.094145775 0.18252292 0.11891997 0.017145757 -0.062392596 -0.029093107 -0.3121966 0.119034685 -0.04246837 -0.09176613 0.12696795 -0.10681898 -0.020540792 -0.0845195 -0.17026411 0.2776571 -0.12036342 0.079348095 0.18181382 -0.07215515 -0.09854753 0.10333139 -0.18513168 0.14209951 -0.064580135 0.15404326 0.2636041 0.091602124 -0.12955214 0.20898777 -0.14081705
227 0.033115637 0.01168798 -0.028098732 -0.22753303 0.2877065 -0.04397395 0.060915504 -0.14269903 -0.08839992 -0.21343882 -0.03067907 -0.15647471 -0.31994534 -0.14035986 0.021386784 0.048812862 0.038051665 0.07361185 -0.07687362 0.019103633 -0.21337007 0.09972696 -0.13731048 -0.10178301 -0.030869013 0.16016467 -0.062115237 0.05818307 -0.10290767 -0.3181194 0.058648333 -0.04227606 -0.1583983 -0.06821452 -0.24452406 -0.2178284 -0.055080723 0.107910685 0.09110911 -0.13989227 0.14973627 -0.04659068 -0.1324314 -0.32759938 -0.08106572 -0.17071283 0.26863268 -0.07217315 0.0021368007 -0.23329829 0.11420812 0.02670534 -0.19776992 0.1141832 0.026410315 0.120785825 0.07863462 -0.006807211 0.06946136 -0.119755246 -0.3734843 -0.11599062 0.18825948 -0.079265624 0.12459572 0.09983996 -0.17856963 -0.05847895 0.01380934 -0.10673148 -0.21195102 0.096987195 0.12184447 0.082899205 -0.27015385 -0.06418391 0.09577598 -0.0082287835 0.291509 -0.047646247 -0.015262528 -0.06692071 -0.1289327 -0.056657862 0.08450476 -0.06857844 -0.12511854 -0.11168715 0.11822561 -0.13211934 0.17110184 -0.51597327 -0.29087764 0.11101519 0.1831163 -0.02055316 0.14946838 0.21424745 0.35709605 0.0824509 0.043792523 0.20987514 -0.17569342 0.0026069698 0.28579107 0.017600777 0.21405318 0.08063755 -0.063605234 -0.19294113 0.028512448 -0.10104702 -0.12635215 0.20317674 0.04738383 0.10169619 0.085867114 0.27450034 0.35604516 0.049569372 0.19818923 0.13045783 0.14261492 0.048560545 0.02126503 0.049369127 0.2671629 0.025802003
24 -0.121932685 0.04502039 0.20415951 -0.101773426 0.080824845 0.19187577 0.014676089 0.27759346 -0.12501353 -0.2254161 0.07985222 0.10567935 0.05723092 -0.040184513 0.13013823 0.010483577 0.13313577 0.020164616 0.077346735 0.06255544 -0.06808337 0.19779272 0.07616246 0.09460407 -0.140463 -0.049726404 -0.089463145 0.33875918 0.25379974 -0.020918904 0.10445783 -0.14924577 -0.06937034 -0.14692101 -0.27537307 0.057715945 0.06472625 0.15234548 0.08380032 -0.26406732 0.27080038 -0.18074387 -0.13365763 -0.08190939 -0.1597444 -0.12963411 0.15480155 0.14878239 0.11884687 0.016333451 0.17598478 -0.108785674 -0.16340867 0.18151927 -0.18034868 0.18108273 -0.10510004 -0.19498539 0.059882965 -0.04012147 -0.044255313 -0.16418567 0.09747717 -0.2857884 0.09470766 0.12077502 0.10707169 -0.08330556 0.1141694 0.14995365 -0.027642492 0.16151996 -0.02819133 -0.014886347 0.26661393 0.076628506 0.022001853 -0.33363765 0.04703627 -0.14503872 0.0011553854 0.19603124 0.09938797 -0.16020603 -0.03628477 -0.2070683 -0.16043684 -0.080940306 0.023125812 -0.19253087 0.24742956 -0.07389767 -0.22559276 -0.01327353 0.20223214 0.0658091 -0.16110559 0.040439595 0.1460923 0.04877412 -0.06065729 -0.074738584 0.08633276 -0.0553041 0.044312965 0.006496068 0.091929935 -0.03708505 -0.18770382 0.01103712 -0.24005722 -0.26890147 0.0072911023 -0.11481193 -0.06666481 0.051503148 0.0025262744 -0.061898783 0.19354792 0.032135878 -0.10254818 -0.05402313 0.07100763 0.17415762 0.21694842 0.1627338 0.20500375 -0.087935604
139 0.19672473 -0.12965454 0.35969684 -0.14625801 0.3808951 0.14573316 -0.06360387 -0.101211384 -0.09955895 -0.37831193 -0.094810165 -0.21794756 -0.15546116 0.24141654 -0.005661333 -0.11709798 -0.1240807 0.044853505 0.08734859 0.040976506 -0.0026615341 -0.123093516 0.08803227 -0.07171319 0.017915992 -0.031070152 -0.20291923 0.12950931 0.058629118 0.04206674 0.23710038 0.30626574 -0.07178449 -0.13348863 -0.31165147 -0.28211296 -0.06595486 0.13211837 -0.09871909 0.024291683 0.32376504 -0.032697193 -0.2606013 -0.25617817 0.113876574 -0.07412389 0.29988143 -0.0011415242 -0.10899323 -0.0133659905 0.06280386 -0.20339024 -0.12068826 -0.06618887 -0.01351655 -0.0341042 0.02681369 -0.05043085 0.12314541 -0.056687556 -0.21000291 -0.2278387 0.10953352 0.001428819 0.046316523 -0.035565417 -0.24319224 0.024382778 -0.0030701866 -0.16093373 -0.2113261 0.120433636 0.16323145 0.0651769 0.044885628 0.11348108 0.17266773 0.14887421 0.16861932 -0.1217867 -0.008911998 0.03670247 0.0664266 -0.076936446 0.055912156 0.05301804 0.14677304 0.074516475 -0.044842333 -0.052291762 0.03811157 -0.2528718 -0.15849863 -0.1183042 0.19406539 0.00607899 0.025667142 0.059154876 0.0689745 0.017238839 0.084270865 0.048612967 -0.23028468 -0.13131152 0.35614997 -0.048683718 0.053034887 -0.058981106 -0.0021573862 0.0869535 -0.17300884 -0.13744734 0.0036755828 0.21124539 0.09797784 0.29218474 0.07346104 0.06421407 0.17089774 0.050405096 -0.033850178 0.035837367 0.2315527 0.090752654 0.14334996 0.061444182 0.1599997 0.090285316
200 0.18624893 -0.07663098 0.20254831 -0.11784546 0.3324879 0.11129629 -0.04217749 -0.16646916 -0.08280263 -0.3602876 -0.096406616 -0.21384858 -0.2647121 0.17109795 -0.03526727 -0.055881917 -0.08423695 0.038697716 -0.028643658 0.0036698212 -0.07334673 -0.08884377 0.015136489 -0.09811927 0.02954883 0.02498836 -0.20448342 0.12753297 0.013869345 -0.07324988 0.16226766 0.27147335 -0.057291474 -0.15609379 -0.31507123 -0.3082979 -0.08698122 0.1205707 -0.024446217 -0.0022980678 0.2665445 -0.08938298 -0.2713751 -0.3118887 0.07176152 -0.10923355 0.36857966 -0.09109341 -0.08354076 -0.13788776 0.029656375 -0.17078151 -0.09187051 0.030187747 0.009846354 -0.012308205 0.07584457 -0.017892545 0.12979805 -0.08103274 -0.34171364 -0.20460163 0.13516127 0.058348008 0.033552703 -0.02917675 -0.25311974 0.047756966 -0.0028459064 -0.16815001 -0.27212924 0.124233484 0.14986153 0.13966861 -0.04236329 0.10459701 0.093934685 0.19515212 0.24438642 -0.11665926 0.044131808 -0.02889431 -0.027298093 -0.03413183 0.04966085 0.021975745 0.10097983 0.080788895 -0.00951183 -0.08378365 0.046441514 -0.36483786 -0.20553114 -0.11037292 0.14931165 0.0057021515 0.04068657 0.10482288 0.15695612 0.060740307 0.053692337 0.14436853 -0.2838388 -0.1243165 0.33535695 -0.033879608 0.11522388 -0.025222251 -0.03348232 -0.011997764 -0.13141456 -0.11909435 0.022299986 0.23034483 0.13678525 0.2410907 0.08972297 0.1384684 0.19892107 0.054334383 0.033008873 0.010273947 0.1894957 0.11778713 0.09758348 0.09885531 0.20845628 0.09745304
28 0.022249747 -0.08644041 0.49603638 -0.24123 0.3502162 0.30734333 -0.05669647 0.4015299 -0.037711784 -0.20396268 -0.07483814 -0.073924825 0.147809 -0.2410875 0.04971931 0.029167676 0.09458348 -0.020078635 0.21772556 -0.11640628 0.15265751 0.2212042 0.3467271 0.051381264 -0.09856728 -0.18987125 -0.1346877 0.14969166 0.32299387 -0.10301283 0.06818674 -0.13994426 -0.009393069 0.07208842 -0.1542231 -0.11053594 0.08719973 0.06561677 -0.0011882185 -0.23377076 0.027593382 -0.03695869 0.070304 -0.23554522 -0.021253567 -0.07474265 -0.008490548 0.16422814 0.10283227 -0.05450607 0.13955985 -0.10919165 -0.06376246 0.07342828 -0.079802684 0.10275008 -0.061772425 0.0017680249 -0.0027910837 0.0315765 -0.1318484 -0.053163704 0.03470357 -0.2714224 0.07933069 0.12630428 0.15189032 -0.1495777 0.1638243 0.118268 0.099275656 0.12241337 -0.0017866337 -0.057305016 0.09810545 0.09449821 0.04706564 -0.3375342 -0.0004984363 -0.1305828 0.103723265 0.08314258 0.013077536 -0.14167096 -0.021670967 -0.27734286 -0.11782943 0.09566753 0.055256933 -0.21692696 0.17546663 -0.13455245 -0.077233896 0.06917468 0.14969236 0.052202675 -0.028689243 0.019575106 0.23873992 0.085545875 0.0681562 -0.14057146 -0.13617119 -0.19562884 0.19296053 -0.13669702 -0.018975085 0.08494921 -0.039272252 0.02353588 -0.07447864 -0.24278368 0.1200377 -0.11735361 -0.14096361 0.21520099 -0.09589824 0.070911705 0.14630061 -0.10036249 0.10675564 -0.0054964717 0.08344789 0.26215592 0.03909004 -0.18105145 0.15643767 -0.057191268
